{"learner":{"attributes":{"best_iteration":"99","best_ntree_limit":"100","scikit_learn":"{\"use_label_encoder\": null, \"n_estimators\": 100, \"objective\": \"binary:logistic\", \"max_depth\": 10, \"max_leaves\": null, \"max_bin\": null, \"grow_policy\": null, \"learning_rate\": null, \"verbosity\": null, \"booster\": null, \"tree_method\": null, \"gamma\": null, \"min_child_weight\": null, \"max_delta_step\": null, \"subsample\": null, \"sampling_method\": null, \"colsample_bytree\": null, \"colsample_bylevel\": null, \"colsample_bynode\": null, \"reg_alpha\": null, \"reg_lambda\": null, \"scale_pos_weight\": null, \"base_score\": null, \"missing\": NaN, \"num_parallel_tree\": null, \"random_state\": null, \"n_jobs\": null, \"monotone_constraints\": null, \"interaction_constraints\": null, \"importance_type\": null, \"gpu_id\": null, \"validate_parameters\": null, \"predictor\": null, \"enable_categorical\": false, \"feature_types\": null, \"max_cat_to_onehot\": null, \"max_cat_threshold\": null, \"eval_metric\": null, \"early_stopping_rounds\": null, \"callbacks\": null, \"classes_\": [0.0, 1.0], \"n_classes_\": 2, \"_estimator_type\": \"classifier\"}"},"feature_names":[],"feature_types":[],"gradient_booster":{"model":{"gbtree_model_param":{"num_parallel_tree":"1","num_trees":"100","size_leaf_vector":"0"},"tree_info":[0,0,0,0,0,0,0,0,0,0,0,0,0,0,0,0,0,0,0,0,0,0,0,0,0,0,0,0,0,0,0,0,0,0,0,0,0,0,0,0,0,0,0,0,0,0,0,0,0,0,0,0,0,0,0,0,0,0,0,0,0,0,0,0,0,0,0,0,0,0,0,0,0,0,0,0,0,0,0,0,0,0,0,0,0,0,0,0,0,0,0,0,0,0,0,0,0,0,0,0],"trees":[{"base_weights":[-1.5931559E0,-1.8663595E0,-2.9787233E-1,-1.87471E0,-4E-1,-1.9428572E-1,-1.2941177E0,-1.0778443E-1,-1.3333334E0,1.1965812E-1,-5.925926E-1,-1E0,1.9469027E-1,-9.5238096E-1,5E-1,1.1111111E-1,1.1111112E0,-1.2E0,1.8181819E-1,1.2E0,-4E-1,-2.3076923E-1,4E-1,-4.4444445E-1,-1.6190476E0,-5.116279E-1,7.692308E-1,8.8E-1,5.1282052E-2,-6.666667E-1,-0E0,-7.096774E-1,-0E0,1E0,2.2222222E-1,1.0476191E0,-0E0,-6.666667E-1,3.2258064E-1,-1E0,-0E0,-2.857143E-1,-1.1428572E0,-6.666667E-1,1E0,-0E0,1.4666667E0,-0E0,-1E0,8.5714287E-1,-5.714286E-1],"categories":[],"categories_nodes":[],"categories_segments":[],"categories_sizes":[],"default_left":[1,1,1,0,0,1,0,1,0,1,1,0,1,1,1,1,0,1,0,0,0,1,1,1,0,1,1,1,1,1,0,1,1,0,0,1,0,1,1,0,0,0,0,0,0,0,0,0,0,0,0],"id":0,"left_children":[1,3,5,-1,-1,7,-1,9,-1,11,13,-1,15,17,19,21,-1,23,-1,-1,-1,25,27,29,-1,31,33,35,37,39,-1,41,43,-1,-1,45,-1,47,49,-1,-1,-1,-1,-1,-1,-1,-1,-1,-1,-1,-1],"loss_changes":[9.251343E1,1.9072876E0,4.5988626E0,0E0,0E0,4.1669345E0,0E0,4.674514E0,0E0,2.651993E0,5.7830687E0,0E0,2.0403144E0,3.1671E0,3E0,2.7589746E0,0E0,2.0507936E0,0E0,0E0,0E0,4.0447226E0,2.465641E0,4.4444448E-1,0E0,1.0892725E0,1.880343E-1,9.2190456E-1,2.114144E0,6.666666E-1,0E0,1.0967741E0,3.3333335E0,0E0,0E0,2.304762E0,0E0,6.666666E-1,4.193548E0,0E0,0E0,0E0,0E0,0E0,0E0,0E0,0E0,0E0,0E0,0E0,0E0],"parents":[2147483647,0,0,1,1,2,2,5,5,7,7,9,9,10,10,12,12,13,13,14,14,15,15,17,17,21,21,22,22,23,23,25,25,26,26,27,27,28,28,29,29,31,31,32,32,35,35,37,37,38,38],"right_children":[2,4,6,-1,-1,8,-1,10,-1,12,14,-1,16,18,20,22,-1,24,-1,-1,-1,26,28,30,-1,32,34,36,38,40,-1,42,44,-1,-1,46,-1,48,50,-1,-1,-1,-1,-1,-1,-1,-1,-1,-1,-1,-1],"split_conditions":[5E-1,2.3332906E0,1.5E0,-5.6241304E-1,-1.20000005E-1,1.5E0,-3.8823533E-1,5E-1,-4.0000004E-1,-1.5116535E0,6.5E0,-3E-1,5E-1,1.5E0,5E-1,1.5E0,3.3333337E-1,1.5E0,5.454546E-2,3.6E-1,-1.20000005E-1,5E-1,2.5E0,5E-1,-4.8571432E-1,5E-1,-3.2828894E-2,6.7700696E-1,-3.877468E-1,5E-1,-0E0,2.0378305E-1,1.3868427E0,3E-1,6.666667E-2,5E-1,-0E0,4E0,1.5E0,-3E-1,-0E0,-8.5714296E-2,-3.4285718E-1,-2.0000002E-1,3E-1,-0E0,4.4000003E-1,-0E0,-3E-1,2.5714287E-1,-1.7142859E-1],"split_indices":[4,0,12,0,0,16,0,11,0,0,4,0,22,15,8,4,0,4,0,0,0,8,4,13,0,13,0,0,0,15,0,0,0,0,0,18,0,7,8,0,0,0,0,0,0,0,0,0,0,0,0],"split_type":[0,0,0,0,0,0,0,0,0,0,0,0,0,0,0,0,0,0,0,0,0,0,0,0,0,0,0,0,0,0,0,0,0,0,0,0,0,0,0,0,0,0,0,0,0,0,0,0,0,0,0],"sum_hessian":[2.62E2,2.16E2,4.6E1,2.145E2,1.5E0,4.275E1,3.25E0,4.075E1,2E0,2.825E1,1.25E1,1E0,2.725E1,9.5E0,3E0,2.6E1,1.25E0,7.75E0,1.75E0,1.5E0,1.5E0,1.2E1,1.4E1,3.5E0,4.25E0,9.75E0,2.25E0,5.25E0,8.75E0,2E0,1.5E0,6.75E0,3E0,1E0,1.25E0,4.25E0,1E0,2E0,6.75E0,1E0,1E0,4.25E0,2.5E0,2E0,1E0,1.5E0,2.75E0,1E0,1E0,4.25E0,2.5E0],"tree_param":{"num_deleted":"0","num_feature":"24","num_nodes":"51","size_leaf_vector":"0"}},{"base_weights":[-1.2120856E0,-1.4299741E0,-2.3513328E-1,-1.4365792E0,-3.287948E-1,-3.1521255E-1,4.938613E-1,-1.326136E-1,-6.866324E-1,8.1227946E-1,-2.535411E-1,-2.4474876E-2,-1.1047833E0,-8.898331E-1,3.346457E-1,1.0935681E-1,1.1186802E0,6.645E-2,-9.862013E-1,-1.0519091E0,-5.764161E-2,-1.4197403E-2,9.4189215E-1,-4.463935E-1,-1.3542535E0,1.1975826E-1,-5.7679117E-1,-1.2819484E-1,-5.8906627E-1,-1.1001213E-1,6.599583E-1,-9.218793E-1,2.5418267E-1,-4.120654E-1,4.4781718E-1,8.6115444E-1,7.295614E-2,-5.95437E-1,9.366958E-2,8.7983966E-1,-6.6284657E-1,1.0154592E0,2.3832002E-1],"categories":[],"categories_nodes":[],"categories_segments":[],"categories_sizes":[],"default_left":[1,1,1,0,0,1,1,1,1,1,0,1,0,1,0,0,0,1,0,1,0,1,0,1,0,1,1,0,0,1,1,0,0,1,1,1,0,0,0,0,0,0,0],"id":1,"left_children":[1,3,5,-1,-1,7,9,11,13,15,-1,17,-1,19,-1,-1,-1,21,-1,23,-1,25,-1,27,-1,29,31,-1,-1,33,35,-1,-1,37,39,41,-1,-1,-1,-1,-1,-1,-1],"loss_changes":[5.201465E1,9.8883057E-1,2.8436298E0,0E0,0E0,2.764039E0,1.3832469E0,3.0702806E0,3.1274943E0,6.7604065E-1,0E0,2.4733748E0,0E0,1.5101681E0,0E0,0E0,0E0,1.8556632E0,0E0,1.1693983E0,0E0,1.9439522E0,0E0,1.3870317E-1,0E0,2.6694531E0,1.6555941E0,0E0,0E0,2.8021746E0,6.914041E-1,0E0,0E0,1.038708E0,3.4316792E0,2.0618963E-1,0E0,0E0,0E0,0E0,0E0,0E0,0E0],"parents":[2147483647,0,0,1,1,2,2,5,5,6,6,7,7,8,8,9,9,11,11,13,13,17,17,19,19,21,21,23,23,25,25,26,26,29,29,30,30,33,33,34,34,35,35],"right_children":[2,4,6,-1,-1,8,10,12,14,16,-1,18,-1,20,-1,-1,-1,22,-1,24,-1,26,-1,28,-1,30,32,-1,-1,34,36,-1,-1,38,40,42,-1,-1,-1,-1,-1,-1,-1],"split_conditions":[5E-1,2.3332906E0,2.5E0,-4.309738E-1,-9.8638445E-2,5E-1,5E-1,1.5E0,1.5E0,7E0,-7.606234E-2,1.5E0,-3.31435E-1,6.5E0,1.0039371E-1,3.2807045E-2,3.3560407E-1,5E-1,-2.958604E-1,1.5E0,-1.7292485E-2,2.5E0,2.8256765E-1,2.6324097E-2,-4.0627608E-1,5E-1,5.5E0,-3.845845E-2,-1.7671989E-1,5E-1,6.1785394E-1,-2.765638E-1,7.62548E-2,1.5E0,5E-1,2.5E0,2.1886842E-2,-1.786311E-1,2.8100874E-2,2.639519E-1,-1.9885398E-1,3.0463776E-1,7.149601E-2],"split_indices":[4,0,10,0,0,11,3,12,15,4,0,16,0,4,0,0,0,22,0,4,0,13,0,0,0,13,13,0,0,8,0,0,0,4,10,4,0,0,0,0,0,0,0],"split_type":[0,0,0,0,0,0,0,0,0,0,0,0,0,0,0,0,0,0,0,0,0,0,0,0,0,0,0,0,0,0,0,0,0,0,0,0,0,0,0,0,0,0,0],"sum_hessian":[2.4493285E2,1.998883E2,4.5044533E1,1.9839369E2,1.4946129E0,4.109761E1,3.946922E0,2.8462036E1,1.2635577E1,2.706893E0,1.2400293E0,2.6535545E1,1.9264903E0,1.0646067E1,1.9895103E0,1.23365E0,1.473243E0,2.509398E1,1.4415646E0,8.689662E0,1.9564049E0,2.3878069E1,1.2159108E0,3.7186446E0,4.971017E0,1.9921757E1,3.9563124E0,1.7389166E0,1.979728E0,1.45355215E1,5.3862357E0,2.7181277E0,1.2381847E0,9.599106E0,4.9364157E0,3.6635191E0,1.7227165E0,6.9146075E0,2.684498E0,3.703619E0,1.2327967E0,2.4308915E0,1.2326277E0],"tree_param":{"num_deleted":"0","num_feature":"24","num_nodes":"43","size_leaf_vector":"0"}},{"base_weights":[-1.0025584E0,-1.2088196E0,-1.8401155E-1,-1.2153903E0,-2.7126664E-1,-1.1431207E-1,-8.787987E-1,-5.3726222E-2,-9.4738185E-1,8.6092405E-2,-3.6273545E-1,-3.1170067E-1,2.773079E-1,-6.233746E-1,3.7729952E-1,5.459728E-3,-1.1263417E0,5.823873E-1,-6.13877E-2,-9.873E-1,-4.8590433E-2,9.631098E-1,-3.4279984E-1,-3.3869183E-1,9.4134665E-1,1.4194193E-1,1.1572052E0,3.9526874E-1,-4.3743357E-1,-1.1347157E0,-3.8116887E-1,4.5724615E-1,-7.2278684E-1,-4.8177776E-1,5.585788E-2,4.1270444E-1,-5.333139E-1,1.0107914E0,-5.997025E-2,-1.22436956E-1,-7.8573054E-1,7.2807455E-1,-3.0746454E-2,-2.5591978E-1,-6.384395E-1,8.2286847E-1,-2.4998412E-2,-3.8268614E-1,2.8765932E-1,3.2105276E-1,-7.001262E-1,-5.257007E-1,9.439635E-2,-6.645098E-1,7.090485E-1],"categories":[],"categories_nodes":[],"categories_segments":[],"categories_sizes":[],"default_left":[1,1,1,0,0,1,0,1,0,1,1,1,1,1,1,1,0,1,1,1,1,0,0,1,0,1,0,1,1,0,0,1,0,1,0,1,0,0,1,1,0,0,0,1,0,0,1,0,0,0,0,0,0,0,0],"id":2,"left_children":[1,3,5,-1,-1,7,-1,9,-1,11,13,15,17,19,21,23,-1,25,27,29,31,-1,-1,33,-1,35,-1,37,39,-1,-1,41,-1,43,-1,45,-1,-1,47,49,-1,-1,-1,51,-1,-1,53,-1,-1,-1,-1,-1,-1,-1,-1],"loss_changes":[3.6107056E1,7.279968E-1,2.053935E0,0E0,0E0,2.0478144E0,0E0,1.7517749E0,0E0,2.2333705E0,2.665E0,2.495265E0,2.0601158E0,1.9796441E0,1.9770668E0,2.8727725E0,0E0,2.4694257E0,1.9225727E0,9.319496E-2,1.9707601E0,0E0,0E0,3.957216E-1,0E0,1.5053321E0,0E0,1.4971349E0,5.6890476E-1,0E0,0E0,4.6651375E-1,0E0,9.922266E-3,0E0,1.0225835E0,0E0,0E0,5.465954E-1,1.3438319E0,0E0,0E0,0E0,3.9695013E-1,0E0,0E0,2.1942325E0,0E0,0E0,0E0,0E0,0E0,0E0,0E0,0E0],"parents":[2147483647,0,0,1,1,2,2,5,5,7,7,9,9,10,10,11,11,12,12,13,13,14,14,15,15,17,17,18,18,19,19,20,20,23,23,25,25,27,27,28,28,31,31,33,33,35,35,38,38,39,39,43,43,46,46],"right_children":[2,4,6,-1,-1,8,-1,10,-1,12,14,16,18,20,22,24,-1,26,28,30,32,-1,-1,34,-1,36,-1,38,40,-1,-1,42,-1,44,-1,46,-1,-1,48,50,-1,-1,-1,52,-1,-1,54,-1,-1,-1,-1,-1,-1,-1,-1],"split_conditions":[5E-1,2.3332906E0,1.5E0,-3.646171E-1,-8.1379995E-2,1.5E0,-2.6363963E-1,5E-1,-2.8421456E-1,-3.877468E-1,6.5E0,5E-1,5.58701E-1,5E-1,5E-1,5E-1,-3.3790252E-1,1.5E0,5E-1,5E-1,5E-1,2.8893295E-1,-1.02839954E-1,5E-1,2.82404E-1,1.5E0,3.471616E-1,5E-1,5E-1,-3.404147E-1,-1.1435067E-1,-4.4689977E-1,-2.1683607E-1,1.5E0,1.6757363E-2,5E-1,-1.5999417E-1,3.0323744E-1,9.136189E-1,1.5E0,-2.3571917E-1,2.1842237E-1,-9.223937E-3,5E-1,-1.9153185E-1,2.4686055E-1,8.5477084E-2,-1.1480585E-1,8.6297795E-2,9.631583E-2,-2.1003786E-1,-1.5771021E-1,2.8318906E-2,-1.9935293E-1,2.1271457E-1],"split_indices":[4,0,12,0,0,16,0,11,0,0,4,10,0,13,8,8,0,7,7,15,3,0,0,13,0,13,0,1,15,0,0,0,0,4,0,7,0,0,0,7,0,0,0,3,0,0,0,0,0,0,0,0,0,0,0],"split_type":[0,0,0,0,0,0,0,0,0,0,0,0,0,0,0,0,0,0,0,0,0,0,0,0,0,0,0,0,0,0,0,0,0,0,0,0,0,0,0,0,0,0,0,0,0,0,0,0,0,0,0,0,0,0,0],"sum_hessian":[2.1417818E2,1.7069011E2,4.3488068E1,1.6920789E2,1.4822158E0,4.0581547E1,2.9065208E0,3.8822624E1,1.7589228E0,2.7225283E1,1.159734E1,8.633848E0,1.8591434E1,8.693237E0,2.9041026E0,6.929368E0,1.7044803E0,9.402578E0,9.188856E0,4.883533E0,3.8097038E0,1.4152832E0,1.4888195E0,5.5328803E0,1.3964874E0,6.0295005E0,3.3730783E0,4.126575E0,5.062281E0,3.2267096E0,1.6568236E0,2.3604753E0,1.4492284E0,3.8981202E0,1.6347603E0,4.5813136E0,1.4481869E0,1.2355927E0,2.8909824E0,3.367907E0,1.6943743E0,1.2016176E0,1.1588578E0,2.675072E0,1.2230482E0,1.9107814E0,2.6705322E0,1.4469172E0,1.4440652E0,2.1565661E0,1.2113408E0,1.2284149E0,1.4466572E0,1.4777918E0,1.1927404E0],"tree_param":{"num_deleted":"0","num_feature":"24","num_nodes":"55","size_leaf_vector":"0"}},{"base_weights":[-8.584879E-1,-1.0632827E0,-1.5547983E-1,-1.0704389E0,-2.2431086E-1,-2.2399344E-1,4.3362576E-1,-1.1488428E-1,-5.5212355E-1,6.775975E-1,-1.539441E-1,-2.5177523E-1,4.1217005E-1,-7.111093E-1,1.23686075E-1,7.446986E-2,9.431364E-1,-5.6544745E-1,-1.5897213E-3,8.344796E-1,-3.0180508E-1,-1.2861244E-1,-8.399192E-1,-8.305053E-1,1.6744463E-1,3.2162777E-1,-5.813057E-1,1.521464E-1,-5.880056E-1,-2.4805838E-1,4.9413076E-1,-6.1124258E-2,7.129547E-1,-2.5334656E-1,-9.8658425E-1,6.032487E-1,-4.5042932E-1,7.753172E-2,1.0070859E0,-7.2144055E-1,4.3798652E-1,-5.401512E-1,-1.18184954E-1],"categories":[],"categories_nodes":[],"categories_segments":[],"categories_sizes":[],"default_left":[1,1,1,0,0,1,1,1,1,1,0,1,1,1,0,0,0,1,1,0,1,0,0,0,1,1,1,0,0,0,0,1,1,1,0,0,1,0,0,0,0,0,0],"id":3,"left_children":[1,3,5,-1,-1,7,9,11,13,15,-1,17,19,21,-1,-1,-1,23,25,-1,27,-1,-1,-1,29,31,33,-1,-1,-1,-1,35,37,39,-1,-1,41,-1,-1,-1,-1,-1,-1],"loss_changes":[2.6280853E1,6.128998E-1,1.8169618E0,0E0,0E0,1.3267794E0,7.895206E-1,2.297352E0,1.100836E0,5.003387E-1,0E0,1.9418371E0,2.2562656E0,4.757092E-1,0E0,0E0,0E0,2.2722921E0,2.9552968E0,0E0,5.0587046E-1,0E0,0E0,0E0,6.314441E-1,1.5607816E0,5.003412E-1,0E0,0E0,0E0,0E0,1.8344133E0,8.727777E-1,1.761084E0,0E0,0E0,6.679028E-2,0E0,0E0,0E0,0E0,0E0,0E0],"parents":[2147483647,0,0,1,1,2,2,5,5,6,6,7,7,8,8,9,9,11,11,12,12,13,13,17,17,18,18,20,20,24,24,25,25,26,26,31,31,32,32,33,33,36,36],"right_children":[2,4,6,-1,-1,8,10,12,14,16,-1,18,20,22,-1,-1,-1,24,26,-1,28,-1,-1,-1,30,32,34,-1,-1,-1,-1,36,38,40,-1,-1,42,-1,-1,-1,-1,-1,-1],"split_conditions":[5E-1,2.3332906E0,2.5E0,-3.2113168E-1,-6.7293264E-2,4.5E0,5E-1,5E-1,6.5E0,2.6293606E-1,-4.6183232E-2,5E-1,1.5E0,-7.426647E-1,3.7105825E-2,2.2340957E-2,2.8294092E-1,7.953129E-1,5.58701E-1,2.503439E-1,2.5E0,-3.8583733E-2,-2.5197577E-1,-2.491516E-1,5E-1,1.5E0,1.5E0,4.5643922E-2,-1.7640169E-1,-7.441752E-2,1.4823924E-1,5E-1,5E-1,5E-1,-2.959753E-1,1.8097462E-1,-1.5113486E-1,2.3259517E-2,3.0212578E-1,-2.1643217E-1,1.3139597E-1,-1.6204536E-1,-3.5455488E-2],"split_indices":[4,0,10,0,0,4,3,8,7,0,0,7,8,0,0,0,0,0,0,0,4,0,0,0,18,4,7,0,0,0,0,18,13,13,0,0,0,0,0,0,0,0,0],"split_type":[0,0,0,0,0,0,0,0,0,0,0,0,0,0,0,0,0,0,0,0,0,0,0,0,0,0,0,0,0,0,0,0,0,0,0,0,0,0,0,0,0,0,0],"sum_hessian":[1.8268935E2,1.4107887E2,4.1610466E1,1.3961214E2,1.466746E0,3.7830513E1,3.779954E0,2.9403454E1,8.427059E0,2.5626614E0,1.2172928E0,2.3755718E1,5.647736E0,6.7798505E0,1.6472083E0,1.1747833E0,1.387878E0,9.981373E0,1.3774345E1,3.4426572E0,2.2050788E0,1.589658E0,5.1901927E0,7.232483E0,2.74889E0,9.129461E0,4.644884E0,1.0337725E0,1.1713063E0,1.3159071E0,1.4329828E0,5.0418715E0,4.0875893E0,3.4655845E0,1.1792996E0,1.6597884E0,3.3820834E0,1.6932316E0,2.394358E0,2.0404608E0,1.4251236E0,2.170248E0,1.2118353E0],"tree_param":{"num_deleted":"0","num_feature":"24","num_nodes":"43","size_leaf_vector":"0"}},{"base_weights":[-7.381185E-1,-9.501431E-1,-1.1803087E-1,-9.5819205E-1,-1.8573375E-1,-6.0969125E-2,-7.0969415E-1,-9.68841E-1,-4.903845E-1,-1.4712698E-2,-7.512637E-1,-6.4534485E-1,-2.4514067E-1,8.910779E-2,-2.8633428E-1,1.8404722E-1,-6.10536E-1,-6.41417E-2,6.0986555E-1,2.9002525E-2,-7.684373E-1,-1.9446418E-1,6.300932E-1,1.116108E0,1.5546851E-1,2.9248196E-1,-6.0367286E-1,-9.951322E-1,-2.4361019E-1,-3.7986374E-1,1.7103533E-1,3.28743E-2,9.868635E-1,5.857038E-1,-4.568729E-1,-3.1020978E-1,5.562856E-1,-1.9231941E-1,-9.869419E-1,1.1087747E0,-2.4732246E-1,5.231198E-2,8.249594E-1,-4.2517892E-1,4.952836E-1,-5.799814E-1,1.3142247E-1,-4.9560727E-3,-5.7836986E-1,9.748631E-1,-1.9891489E-1,5.039326E-1,-3.9153817E-1],"categories":[],"categories_nodes":[],"categories_segments":[],"categories_sizes":[],"default_left":[1,1,1,1,0,1,0,0,1,1,0,0,1,1,1,0,0,1,1,1,1,1,1,0,1,1,0,0,0,1,1,0,0,1,0,0,0,1,0,0,1,0,0,1,1,0,1,0,0,0,0,0,0],"id":4,"left_children":[1,3,5,7,-1,9,-1,-1,11,13,-1,-1,15,17,19,-1,-1,21,23,25,27,29,31,-1,33,35,-1,-1,-1,37,39,-1,-1,41,-1,-1,-1,43,-1,-1,45,-1,-1,47,49,-1,51,-1,-1,-1,-1,-1,-1],"loss_changes":[2.0401718E1,5.365524E-1,1.3375264E0,9.6191406E-2,0E0,1.2149291E0,0E0,0E0,1.5753627E-2,1.0690222E0,0E0,0E0,6.4319986E-1,2.2364898E0,1.6139863E0,0E0,0E0,2.1291068E0,1.288487E0,1.3923522E0,2.544875E-1,1.3821032E0,7.646879E-1,0E0,1.4560542E0,1.0983282E0,0E0,0E0,0E0,1.3137808E0,3.1109972E0,0E0,0E0,3.508953E-1,0E0,0E0,0E0,2.0249107E0,0E0,0E0,8.092244E-1,0E0,0E0,5.766864E-1,1.3020663E0,0E0,8.860961E-1,0E0,0E0,0E0,0E0,0E0,0E0],"parents":[2147483647,0,0,1,1,2,2,3,3,5,5,8,8,9,9,12,12,13,13,14,14,17,17,18,18,19,19,20,20,21,21,22,22,24,24,25,25,29,29,30,30,33,33,37,37,40,40,43,43,44,44,46,46],"right_children":[2,4,6,8,-1,10,-1,-1,12,14,-1,-1,16,18,20,-1,-1,22,24,26,28,30,32,-1,34,36,-1,-1,-1,38,40,-1,-1,42,-1,-1,-1,44,-1,-1,46,-1,-1,48,50,-1,52,-1,-1,-1,-1,-1,-1],"split_conditions":[5E-1,2.3332906E0,1.5E0,5E-1,-5.5720128E-2,1.5E0,-2.1290825E-1,-2.906523E-1,-7.426647E-1,1.5E0,-2.2537911E-1,-1.9360347E-1,4.9954796E-1,5E-1,5E-1,5.521417E-2,-1.831608E-1,8.5E0,1.5E0,3.5E0,2.5E0,5E-1,-2.6944083E-1,3.348324E-1,6.1785394E-1,-8.6097074E-1,-1.8110186E-1,-2.9853967E-1,-7.308306E-2,1.0319248E0,5E-1,9.862291E-3,2.9605907E-1,1.5E0,-1.3706188E-1,-9.306294E-2,1.6688569E-1,3.2208902E-1,-2.960826E-1,3.3263242E-1,5E-1,1.5693594E-2,2.4748783E-1,-7.426647E-1,5E-1,-1.7399442E-1,4E0,-1.4868219E-3,-1.7351097E-1,2.9245895E-1,-5.9674468E-2,1.5117979E-1,-1.1746146E-1],"split_indices":[4,0,12,20,0,16,0,0,0,13,0,0,0,13,10,0,0,4,4,4,4,15,0,0,0,0,0,0,0,0,18,0,0,7,0,0,0,0,0,0,8,0,0,0,3,0,4,0,0,0,0,0,0],"split_type":[0,0,0,0,0,0,0,0,0,0,0,0,0,0,0,0,0,0,0,0,0,0,0,0,0,0,0,0,0,0,0,0,0,0,0,0,0,0,0,0,0,0,0,0,0,0,0,0,0,0,0,0,0],"sum_hessian":[1.5502995E2,1.1513122E2,3.9898727E1,1.13680695E2,1.4505221E0,3.7395264E1,2.503462E0,1.1010333E2,3.5773647E0,3.6003963E1,1.391301E0,1.1924548E0,2.3849096E0,2.6533968E1,9.469996E0,1.3249499E0,1.0599599E0,2.1178387E1,5.3555813E0,6.2934084E0,3.1765883E0,1.843722E1,2.7411664E0,1.8444479E0,3.5111334E0,4.8226914E0,1.4707171E0,1.5925742E0,1.584014E0,1.2206284E1,6.2309356E0,1.4335712E0,1.3075953E0,2.08776E0,1.4233733E0,1.4147075E0,3.407984E0,1.0331404E1,1.8748798E0,1.4131316E0,4.817804E0,1.0238509E0,1.063909E0,8.002855E0,2.3285484E0,2.2820828E0,2.5357213E0,2.4138103E0,5.5890455E0,1.1380433E0,1.1905051E0,1.5021266E0,1.0335946E0],"tree_param":{"num_deleted":"0","num_feature":"24","num_nodes":"53","size_leaf_vector":"0"}},{"base_weights":[-6.3614595E-1,-8.523719E-1,-9.295968E-2,-8.614329E-1,-1.5391095E-1,-1.4907384E-1,3.5860598E-1,-8.05946E-1,-1.0311707E0,-1.0438099E-1,-7.2185993E-1,5.7325894E-1,-1.2882422E-1,-8.205253E-1,-2.8621227E-1,-2.9576316E-2,-4.489346E-1,4.571622E-2,8.291325E-1,-8.292563E-1,-1.5883428E-1,-1.3031039E-1,5.411542E-1,-7.277462E-1,1.5731941E-1,-8.5584533E-1,-5.285495E-1,-5.349626E-2,-5.6211066E-1,4.9636688E-2,7.126625E-1,-1.8334992E-1,-8.5628855E-1,-2.2488344E-1,-8.3907634E-1,-2.3170066E-1,2.6466763E-1,-7.5533944E-1,-1.811249E-1,-7.2037774E-1,1.781514E-1,-3.474594E-1,5.538493E-1,6.1926967E-1,-4.9970675E-2,3.7405118E-1,-2.8659204E-2,-1.6568768E-1,-6.6911554E-1,-3.5459787E-2,8.493126E-1,-4.622334E-1,3.210914E-1,2.9976072E-2,-8.5235214E-1,-8.858842E-1,-2.2695476E-2,-8.0534786E-2,6.0872215E-1],"categories":[],"categories_nodes":[],"categories_segments":[],"categories_sizes":[],"default_left":[1,1,1,1,0,1,1,1,0,1,0,1,0,1,0,1,1,0,0,1,0,1,1,1,0,0,1,1,1,0,0,0,0,1,0,1,1,0,0,0,1,1,0,1,1,0,0,1,1,0,0,0,1,0,0,0,0,0,0],"id":5,"left_children":[1,3,5,7,-1,9,11,13,-1,15,-1,17,-1,19,-1,21,23,-1,-1,25,-1,27,29,31,-1,-1,33,35,37,-1,-1,-1,-1,39,-1,41,43,-1,-1,-1,45,47,-1,49,51,-1,-1,53,55,-1,-1,-1,57,-1,-1,-1,-1,-1,-1],"loss_changes":[1.5548904E1,4.6897888E-1,1.0419065E0,5.064392E-2,0E0,8.30957E-1,5.5569255E-1,3.3445358E-1,0E0,8.6330056E-1,0E0,4.1844523E-1,0E0,2.874031E-1,0E0,1.7385782E0,1.1280166E0,0E0,0E0,1.18247986E-1,0E0,8.146284E-1,3.479141E-1,1.4285398E-1,0E0,0E0,6.0457134E-1,1.3498476E0,1.3859248E-1,0E0,0E0,0E0,0E0,1.2505312E0,0E0,1.5655665E0,9.933383E-1,0E0,0E0,0E0,1.6874671E-1,6.9455075E-1,0E0,6.5216374E-1,9.891364E-1,0E0,0E0,1.3866516E0,6.3072777E-1,0E0,0E0,0E0,4.5132327E-1,0E0,0E0,0E0,0E0,0E0,0E0],"parents":[2147483647,0,0,1,1,2,2,3,3,5,5,6,6,7,7,9,9,11,11,13,13,15,15,16,16,19,19,21,21,22,22,23,23,26,26,27,27,28,28,33,33,35,35,36,36,40,40,41,41,43,43,44,44,47,47,48,48,52,52],"right_children":[2,4,6,8,-1,10,12,14,-1,16,-1,18,-1,20,-1,22,24,-1,-1,26,-1,28,30,32,-1,-1,34,36,38,-1,-1,-1,-1,40,-1,42,44,-1,-1,-1,46,48,-1,50,52,-1,-1,54,56,-1,-1,-1,58,-1,-1,-1,-1,-1,-1],"split_conditions":[5E-1,2.3332906E0,2.5E0,1.5E0,-4.6173286E-2,1.5E0,5E-1,5E-1,-3.0935124E-1,1.5E0,-2.16558E-1,7E0,-3.8647268E-2,1.5E0,-8.586368E-2,5E-1,1.5E0,1.3714866E-2,2.4873976E-1,1.2685368E0,-4.7650285E-2,4.5E0,5E-1,-3.2859382E-1,4.7195826E-2,-2.5675362E-1,1.6234548E0,5E-1,5E-1,1.4891007E-2,2.1379876E-1,-5.500498E-2,-2.5688657E-1,5E-1,-2.517229E-1,6.5E0,1.5E0,-2.2660184E-1,-5.433747E-2,-2.1611333E-1,5E-1,5E-1,1.6615479E-1,5E-1,5E-1,1.1221536E-1,-8.597761E-3,5E-1,5E-1,-1.0637936E-2,2.547938E-1,-1.3867003E-1,-3.282889E-2,8.992822E-3,-2.5570565E-1,-2.6576528E-1,-6.808643E-3,-2.4160437E-2,1.8261665E-1],"split_indices":[4,0,10,13,0,16,3,20,0,8,0,4,0,14,0,8,15,0,0,0,0,13,1,0,0,0,0,13,7,0,0,0,0,18,0,4,13,0,0,0,1,11,0,1,7,0,0,19,15,0,0,0,0,0,0,0,0,0,0],"split_type":[0,0,0,0,0,0,0,0,0,0,0,0,0,0,0,0,0,0,0,0,0,0,0,0,0,0,0,0,0,0,0,0,0,0,0,0,0,0,0,0,0,0,0,0,0,0,0,0,0,0,0,0,0,0,0,0,0,0,0],"sum_hessian":[1.3206102E2,9.4052414E1,3.8008606E1,9.261757E1,1.4348434E0,3.4403324E1,3.6052818E0,7.413214E1,1.848543E1,3.300989E1,1.3934327E0,2.3807645E0,1.2245176E0,7.154642E1,2.5857239E0,2.8013773E1,4.9961195E0,1.162555E0,1.2182094E0,7.036472E1,1.1816976E0,2.4467016E1,3.546756E0,3.284983E0,1.7111365E0,6.295225E1,7.4124665E0,2.172601E1,2.7410076E0,1.2509964E0,2.2957597E0,1.0909638E0,2.194019E0,4.6193633E0,2.7931035E0,1.4100205E1,7.6258035E0,1.1666915E0,1.5743159E0,1.7188329E0,2.9005303E0,1.2775319E1,1.3248863E0,3.1300244E0,4.4957795E0,1.0742705E0,1.8262599E0,9.13061E0,3.6447086E0,1.0337383E0,2.096286E0,2.0132668E0,2.4825125E0,7.850088E0,1.2805225E0,2.4520116E0,1.192697E0,1.3364288E0,1.1460836E0],"tree_param":{"num_deleted":"0","num_feature":"24","num_nodes":"59","size_leaf_vector":"0"}},{"base_weights":[-5.4778445E-1,-7.6283497E-1,-8.034671E-2,-6.9804764E-1,-9.777649E-1,-3.265997E-2,-5.88562E-1,-7.1241105E-1,3.479407E-2,-1.0329212E0,-3.6997443E-1,6.509969E-2,-2.7666083E-1,-7.276595E-1,-2.363757E-1,-4.7657993E-2,4.4784492E-1,-2.2418113E-2,-6.591041E-1,-7.3674166E-1,-1.3610864E-1,5.349452E-2,-6.059288E-1,-1.0706109E-1,6.5821534E-1,2.0877697E-1,-5.48766E-1,-8.2952845E-1,-2.6658806E-1,-7.6307726E-1,-4.625228E-1,-7.801217E-2,7.144115E-1,-1.4575483E-1,-7.4822164E-1,1.1499866E-1,8.326836E-1,-8.812538E-2,5.656141E-1,-6.58831E-1,-8.7675E-1,-7.778623E-1,-1.817802E-1,-1.6962568E-1,4.5333847E-1,-5.5149114E-1,5.546345E-1,-7.072369E-1,-2.3240674E-1,-9.50333E-1,-1.8662891E-1,1.4685558E-1,-6.489323E-1,2.0209814E-3,-3.6116892E-1,-7.6927775E-1,-2.4850757E-1,-3.4365365E-1,-4.8613343E-2,-6.300701E-1,4.0454504E-1,2.9992747E-1,-2.3218794E-2,-1.8132843E-1,6.100926E-1,-7.2690725E-1,-9.810298E-2,-5.2836305E-1,3.4249768E-1,-3.9764228E-1,3.75053E-1,2.4950384E-1,-5.425236E-1],"categories":[],"categories_nodes":[],"categories_segments":[],"categories_sizes":[],"default_left":[1,1,1,1,1,1,0,1,0,0,0,1,1,1,0,1,1,1,1,1,0,1,1,0,1,1,0,0,0,1,1,1,0,0,0,0,0,1,0,1,1,0,1,1,0,0,0,1,1,0,1,1,0,1,1,0,1,0,0,0,0,0,0,1,0,0,1,0,0,0,0,0,0],"id":6,"left_children":[1,3,5,7,9,11,-1,13,-1,-1,-1,15,17,19,-1,21,23,25,27,29,-1,31,33,-1,35,37,-1,-1,-1,39,41,43,-1,-1,-1,-1,-1,45,-1,47,49,-1,51,53,-1,-1,-1,55,57,-1,59,61,-1,63,65,-1,67,-1,-1,-1,-1,-1,-1,69,-1,-1,71,-1,-1,-1,-1,-1,-1],"loss_changes":[1.1512531E1,4.1389847E-1,8.870971E-1,6.984329E-1,1.455679E-1,8.587888E-1,0E0,2.8395462E-1,0E0,0E0,0E0,1.1423452E0,9.8410153E-1,2.2413254E-1,0E0,1.2164676E0,7.7170575E-1,9.914569E-1,5.0917745E-2,7.490158E-2,0E0,1.6784524E0,1.0685933E-1,0E0,3.3031166E-1,6.570388E-1,0E0,0E0,0E0,4.465103E-2,5.429324E-1,8.7880147E-1,0E0,0E0,0E0,0E0,0E0,1.4952726E0,0E0,4.8410034E-1,9.44788E-1,0E0,9.23447E-1,4.8661262E-1,0E0,0E0,0E0,5.978451E-1,7.923052E-2,0E0,1.1392548E0,1.1063176E-1,0E0,1.0904499E0,6.0121846E-1,0E0,9.715563E-1,0E0,0E0,0E0,0E0,0E0,0E0,1.0545908E0,0E0,0E0,9.4202626E-1,0E0,0E0,0E0,0E0,0E0,0E0],"parents":[2147483647,0,0,1,1,2,2,3,3,4,4,5,5,7,7,11,11,12,12,13,13,15,15,16,16,17,17,18,18,19,19,21,21,22,22,24,24,25,25,29,29,30,30,31,31,37,37,39,39,40,40,42,42,43,43,47,47,48,48,50,50,51,51,53,53,54,54,56,56,63,63,66,66],"right_children":[2,4,6,8,10,12,-1,14,-1,-1,-1,16,18,20,-1,22,24,26,28,30,-1,32,34,-1,36,38,-1,-1,-1,40,42,44,-1,-1,-1,-1,-1,46,-1,48,50,-1,52,54,-1,-1,-1,56,58,-1,60,62,-1,64,66,-1,68,-1,-1,-1,-1,-1,-1,70,-1,-1,72,-1,-1,-1,-1,-1,-1],"split_conditions":[5E-1,1.5E0,1.5E0,2.3332906E0,5E-1,1.5E0,-1.7656861E-1,5E-1,1.04382215E-2,-3.0987638E-1,-1.10992335E-1,5E-1,5E-1,1.5E0,-7.091271E-2,1.0319248E0,5E-1,3.5E0,2.5E0,1.2685368E0,-4.0832594E-2,6.7700696E-1,5E-1,-3.2118328E-2,5E-1,1.5E0,-1.6462982E-1,-2.4885854E-1,-7.9976425E-2,-3.2828894E-2,5E-1,2.5E0,2.1432346E-1,-4.372645E-2,-2.244665E-1,3.44996E-2,2.498051E-1,4.99548E-1,1.6968423E-1,-1.5113486E-1,5E-1,-2.333587E-1,1.6234548E0,-1.5113486E-1,1.3600154E-1,-1.6544735E-1,1.6639036E-1,5E-1,5E-1,-2.8509992E-1,6.7700696E-1,5E-1,-1.9467969E-1,-3.877468E-1,-3.2828894E-2,-2.3078333E-1,-7.426647E-1,-1.030961E-1,-1.4584004E-2,-1.8902104E-1,1.2136351E-1,8.997825E-2,-6.9656386E-3,5E-1,1.8302777E-1,-2.1807219E-1,5E-1,-1.5850893E-1,1.0274931E-1,-1.1929269E-1,1.12515904E-1,7.4851155E-2,-1.627571E-1],"split_indices":[4,13,12,0,14,13,0,20,0,0,0,13,10,14,0,0,18,4,4,0,0,0,7,0,1,4,0,0,0,0,18,10,0,0,0,0,0,0,0,0,13,0,0,0,0,0,0,19,18,0,0,1,0,0,0,0,0,0,0,0,0,0,0,8,0,0,15,0,0,0,0,0,0],"split_type":[0,0,0,0,0,0,0,0,0,0,0,0,0,0,0,0,0,0,0,0,0,0,0,0,0,0,0,0,0,0,0,0,0,0,0,0,0,0,0,0,0,0,0,0,0,0,0,0,0,0,0,0,0,0,0,0,0,0,0,0,0,0,0,0,0,0,0,0,0,0,0,0,0],"sum_hessian":[1.1413636E2,7.773943E1,3.639693E1,6.2997578E1,1.4741856E1,3.4247677E1,2.149256E0,6.1813927E1,1.1836499E0,1.2874078E1,1.8677783E0,2.4974691E1,9.2729845E0,5.9383167E1,2.4307587E0,1.9967655E1,5.007036E0,6.205967E0,3.0670178E0,5.824351E1,1.1396563E0,1.7670189E1,2.2974653E0,1.5114037E0,3.4956324E0,4.731175E0,1.4747916E0,1.3622068E0,1.7048109E0,5.1513493E1,6.7300167E0,1.54733305E1,2.1968594E0,1.0207378E0,1.2767277E0,1.2531178E0,2.2425146E0,2.9935026E0,1.7376726E0,3.0415817E1,2.1097677E1,2.3357232E0,4.394294E0,1.3778463E1,1.6948668E0,1.82201E0,1.1714926E0,2.6723724E1,3.6920934E0,1.8724188E1,2.3734887E0,2.982076E0,1.4122177E0,7.7884703E0,5.9899936E0,2.2943724E1,3.7800004E0,1.7581397E0,1.9339538E0,1.3186048E0,1.0548838E0,1.1676495E0,1.8144264E0,6.523318E0,1.2651525E0,1.7683116E0,4.221682E0,2.6372097E0,1.1427908E0,4.902569E0,1.6207486E0,2.6149592E0,1.6067227E0],"tree_param":{"num_deleted":"0","num_feature":"24","num_nodes":"73","size_leaf_vector":"0"}},{"base_weights":[-4.7021613E-1,-6.8086547E-1,-6.7978024E-2,-6.130712E-1,-9.209016E-1,-3.0978065E-2,-6.355533E-1,-6.277946E-1,2.90917E-2,-9.8539335E-1,-3.1898028E-1,3.337848E-2,-2.9791677E-1,-6.43455E-1,-1.9444522E-1,-3.6057178E-2,4.4573012E-1,-6.0658735E-1,1.4408726E-1,-6.527017E-1,-1.166184E-1,2.6695712E-2,-4.5117503E-1,8.717463E-2,5.651849E-1,-9.192121E-1,-1.4181842E-1,-2.2960062E-1,5.0221986E-1,-6.779727E-1,-4.0658587E-1,1.06612906E-1,-2.8591692E-1,-7.1550506E-1,-3.915025E-1,-1.5589027E-1,-7.1691054E-1,-9.364412E-2,4.1098323E-1,-5.824735E-1,3.8458854E-2,-7.321246E-1,-6.599331E-2,2.6025352E-1,-6.916245E-1,-5.94131E-1,1.2068364E-1,6.6943556E-2,-5.2771455E-1,1.2033029E-1,7.9336417E-1,-5.18553E-1,5.334719E-1,-7.49504E-1,-7.4441835E-2,-5.1877934E-2,4.4342053E-1,-8.222447E-1,-1.23688065E-1,2.4116218E-1,-1.8803757E-2,2.2132213E-1,-3.752243E-1,-8.0087715E-1,-3.0128729E-2,2.9884312E-1,-3.15479E-1,5.1399565E-1,-9.2220016E-2,-2.917336E-2,6.724522E-1],"categories":[],"categories_nodes":[],"categories_segments":[],"categories_sizes":[],"default_left":[1,1,1,1,1,1,0,1,0,0,0,1,1,1,0,1,1,1,1,1,0,1,0,0,0,0,0,0,0,1,1,1,1,1,1,1,0,1,1,0,1,1,0,1,1,0,1,1,1,1,0,0,0,0,0,0,0,0,0,0,0,1,0,0,0,1,0,0,0,0,0],"id":7,"left_children":[1,3,5,7,9,11,-1,13,-1,-1,-1,15,17,19,-1,21,23,25,27,29,-1,31,-1,-1,-1,-1,-1,-1,-1,33,35,37,39,41,43,45,-1,47,49,-1,51,53,-1,55,57,-1,59,61,63,65,-1,-1,-1,-1,-1,-1,-1,-1,-1,-1,-1,67,-1,-1,-1,69,-1,-1,-1,-1,-1],"loss_changes":[8.564102E0,5.189228E-1,7.3711324E-1,5.374317E-1,1.7759323E-1,6.092155E-1,0E0,2.3947525E-1,0E0,0E0,0E0,8.465782E-1,1.0256717E0,1.7435837E-1,0E0,6.828557E-1,1.3298804E-1,4.858855E-1,6.0189706E-1,3.72715E-2,0E0,6.1292976E-1,0E0,0E0,0E0,0E0,0E0,0E0,0E0,1.9435501E-1,4.4707203E-1,1.2145903E0,5.05126E-1,3.598194E-1,1.6118894E0,7.081795E-1,0E0,9.033571E-1,7.7618587E-1,0E0,1.1961108E0,3.6445427E-1,0E0,1.965003E-1,2.904079E-1,0E0,7.260594E-2,7.641045E-1,4.4825655E-1,5.326404E-1,0E0,0E0,0E0,0E0,0E0,0E0,0E0,0E0,0E0,0E0,0E0,7.837503E-1,0E0,0E0,0E0,5.724212E-1,0E0,0E0,0E0,0E0,0E0],"parents":[2147483647,0,0,1,1,2,2,3,3,4,4,5,5,7,7,11,11,12,12,13,13,15,15,16,16,17,17,18,18,19,19,21,21,29,29,30,30,31,31,32,32,33,33,34,34,35,35,37,37,38,38,40,40,41,41,43,43,44,44,46,46,47,47,48,48,49,49,61,61,65,65],"right_children":[2,4,6,8,10,12,-1,14,-1,-1,-1,16,18,20,-1,22,24,26,28,30,-1,32,-1,-1,-1,-1,-1,-1,-1,34,36,38,40,42,44,46,-1,48,50,-1,52,54,-1,56,58,-1,60,62,64,66,-1,-1,-1,-1,-1,-1,-1,-1,-1,-1,-1,68,-1,-1,-1,70,-1,-1,-1,-1,-1],"split_conditions":[5E-1,1.5E0,1.5E0,2.3332906E0,5E-1,1.5E0,-1.90666E-1,5E-1,8.72751E-3,-2.9561803E-1,-9.569409E-2,5E-1,1.5E0,1.5E0,-5.833357E-2,4.5E0,5E-1,5E-1,8.5E0,1.2685368E0,-3.4985524E-2,1.0319248E0,-1.3535252E-1,2.6152391E-2,1.6955547E-1,-2.7576363E-1,-4.2545527E-2,-6.888019E-2,1.5066597E-1,5E-1,1.6234548E0,8.5477084E-2,5E-1,5E-1,5E-1,5E-1,-2.1507317E-1,5E-1,1.5E0,-1.7474206E-1,5E-1,5E-1,-1.9797994E-2,-3.877468E-1,4.40395E-1,-1.782393E-1,5E-1,-1.5113486E-1,5E-1,5E-1,2.3800926E-1,-1.5556592E-1,1.6004157E-1,-2.2485122E-1,-2.2332551E-2,-1.5563381E-2,1.3302617E-1,-2.4667342E-1,-3.710642E-2,7.2348654E-2,-5.641127E-3,1.5E0,-1.1256729E-1,-2.4026315E-1,-9.038619E-3,7.953129E-1,-9.4643705E-2,1.541987E-1,-2.7666006E-2,-8.752008E-3,2.0173568E-1],"split_indices":[4,13,16,0,14,8,0,20,0,0,0,8,7,14,0,13,1,15,4,0,0,0,0,0,0,0,0,0,0,21,0,0,13,16,3,18,0,2,7,0,18,14,0,0,0,0,1,0,13,3,0,0,0,0,0,0,0,0,0,0,0,4,0,0,0,0,0,0,0,0,0],"split_type":[0,0,0,0,0,0,0,0,0,0,0,0,0,0,0,0,0,0,0,0,0,0,0,0,0,0,0,0,0,0,0,0,0,0,0,0,0,0,0,0,0,0,0,0,0,0,0,0,0,0,0,0,0,0,0,0,0,0,0,0,0,0,0,0,0,0,0,0,0,0,0],"sum_hessian":[1.0062005E2,6.558234E1,3.5037712E1,5.3910336E1,1.1671998E1,3.3883446E1,1.154266E0,5.2723866E1,1.1864692E0,9.96702E0,1.7049776E0,2.8006327E1,5.877118E0,5.0417057E1,2.3068113E0,2.4751066E1,3.2552607E0,3.241253E0,2.635865E0,4.931265E1,1.1044079E0,2.2313631E1,2.437435E0,1.2457596E0,2.0095012E0,1.3532276E0,1.8880254E0,1.4655522E0,1.1703126E0,4.312945E1,6.183196E0,1.8295483E1,4.018148E0,3.6809177E1,6.320273E0,4.251207E0,1.9319891E0,1.1452666E1,6.8428173E0,1.6834235E0,2.3347247E0,3.5766792E1,1.042387E0,2.0346322E0,4.2856407E0,1.200613E0,3.0505939E0,8.977243E0,2.4754226E0,4.6346464E0,2.2081711E0,1.0761905E0,1.2585342E0,3.470996E1,1.0568304E0,1.0175008E0,1.0171314E0,3.1202385E0,1.165402E0,1.2457193E0,1.8048745E0,7.0242553E0,1.9529885E0,1.2046005E0,1.2708222E0,3.5108423E0,1.1238039E0,3.302367E0,3.721888E0,2.360402E0,1.1504403E0],"tree_param":{"num_deleted":"0","num_feature":"24","num_nodes":"71","size_leaf_vector":"0"}},{"base_weights":[-4.0015492E-1,-5.9922075E-1,-6.2661014E-2,-5.2911896E-1,-8.6612964E-1,-3.0119201E-2,-5.79346E-1,-5.437808E-1,2.4325406E-2,-9.4150984E-1,-2.7433226E-1,6.196315E-3,-4.4905657E-1,-4.3407542E-1,-6.407168E-1,9.194607E-2,-2.1271774E-1,-5.51519E-1,-1.4810489E-1,-7.842674E-1,-4.7280273E-1,-1.9392973E-3,3.965952E-1,7.540742E-3,-5.4437613E-1,-8.1590843E-1,-4.3530133E-1,3.19391E-2,-4.495864E-1,-3.398211E-1,-9.283297E-1,-5.51243E-1,-2.2009546E-3,3.34722E-1,-1.0741315E-1,6.611273E-1,-8.073036E-2,2.0113325E-1,-4.5626462E-1,-7.471178E-1,-1.578507E-1,-6.0251854E-2,-5.769226E-1,3.706504E-1,-1.8276452E-1,-6.049906E-1,-5.318466E-2,6.866257E-2,-6.439835E-1,-7.331197E-1,-2.77591E-1,-1.5561855E-1,8.775549E-1,-1.6706206E-2,-5.408363E-1,8.171418E-1,1.7326036E-1,-8.117193E-2,5.5958325E-1,-5.119482E-1,6.7637426E-1,-3.3132276E-1,-7.095513E-1,-4.6417713E-1,2.2111988E-1,-1.3413846E-1,5.530906E-1,-4.805244E-1,4.7322237E-1,-1.069905E-2,-6.7017317E-1,-8.314668E-1,-1.5776342E-1,-6.325062E-1,-2.2484347E-1,6.372317E-2,-4.3299717E-1,1.2391264E-1,-1.5819265E-1,2.1891107E-1,-5.880979E-1,-2.5278446E-1,4.6560022E-1,-8.0717856E-1,-1.8815715E-2],"categories":[],"categories_nodes":[],"categories_segments":[],"categories_sizes":[],"default_left":[1,1,1,1,1,1,0,1,0,0,0,1,0,1,1,1,1,1,1,1,1,1,1,1,1,0,1,1,1,1,0,1,0,1,1,1,0,1,0,0,0,1,1,0,0,0,0,0,0,0,1,0,0,1,0,0,0,1,0,0,0,1,1,1,0,1,0,0,0,1,0,0,0,0,1,1,1,0,0,0,0,0,0,0,0],"id":8,"left_children":[1,3,5,7,9,11,-1,13,-1,-1,-1,15,-1,17,19,21,23,25,27,29,31,33,35,37,39,-1,41,43,45,47,-1,49,-1,51,53,55,-1,57,-1,-1,-1,59,61,-1,-1,-1,-1,-1,-1,-1,63,-1,-1,65,-1,-1,-1,67,-1,-1,-1,69,71,73,-1,75,-1,-1,-1,77,-1,-1,-1,-1,79,81,83,-1,-1,-1,-1,-1,-1,-1,-1],"loss_changes":[6.064183E0,6.084118E-1,5.678759E-1,4.004631E-1,2.006855E-1,5.170782E-1,0E0,2.1672535E-1,0E0,0E0,0E0,6.220235E-1,0E0,7.555709E-1,1.740303E-1,6.803319E-1,6.860249E-1,1.7654419E-1,4.8250145E-1,3.6756516E-1,4.762938E-1,7.162065E-1,7.6072264E-1,6.840087E-1,1.7507517E-1,0E0,7.1757674E-1,5.283298E-1,1.7056328E-1,5.6465614E-1,0E0,3.4813E-1,0E0,1.4176557E0,5.942145E-1,1.4105237E-1,0E0,5.865532E-1,0E0,0E0,0E0,2.0096269E0,9.60269E-2,0E0,0E0,0E0,0E0,0E0,0E0,0E0,6.64178E-1,0E0,0E0,9.9227E-1,0E0,0E0,0E0,1.0830642E0,0E0,0E0,0E0,5.839036E-1,2.539351E-1,4.770744E-2,0E0,7.4787855E-1,0E0,0E0,0E0,9.528E-2,0E0,0E0,0E0,0E0,6.926231E-1,1.160776E0,7.566639E-1,0E0,0E0,0E0,0E0,0E0,0E0,0E0,0E0],"parents":[2147483647,0,0,1,1,2,2,3,3,4,4,5,5,7,7,11,11,13,13,14,14,15,15,16,16,17,17,18,18,19,19,20,20,21,21,22,22,23,23,24,24,26,26,27,27,28,28,29,29,31,31,33,33,34,34,35,35,37,37,41,41,42,42,50,50,53,53,57,57,61,61,62,62,63,63,65,65,69,69,74,74,75,75,76,76],"right_children":[2,4,6,8,10,12,-1,14,-1,-1,-1,16,-1,18,20,22,24,26,28,30,32,34,36,38,40,-1,42,44,46,48,-1,50,-1,52,54,56,-1,58,-1,-1,-1,60,62,-1,-1,-1,-1,-1,-1,-1,64,-1,-1,66,-1,-1,-1,68,-1,-1,-1,70,72,74,-1,76,-1,-1,-1,78,-1,-1,-1,-1,80,82,84,-1,-1,-1,-1,-1,-1,-1,-1],"split_conditions":[5E-1,1.5E0,1.5E0,2.3332906E0,5E-1,1.5E0,-1.738038E-1,-3.2828894E-2,7.297622E-3,-2.8245297E-1,-8.229968E-2,1.5E0,-1.3471697E-1,-3.877468E-1,6.7700696E-1,5E-1,5E-1,-1.3341947E0,5E-1,5E-1,5E-1,5E-1,6.1785394E-1,3.5E0,2.5E0,-2.4477254E-1,-9.7927666E-1,5E-1,5E-1,3.2208902E-1,-2.7849892E-1,1.2685368E0,-6.602864E-4,5E-1,1.0319248E0,5E-1,-2.4219109E-2,1.5E0,-1.3687938E-1,-2.2413535E-1,-4.7355212E-2,5E-1,5E-1,1.11195125E-1,-5.4829355E-2,-1.8149719E-1,-1.5955398E-2,2.0598771E-2,-1.9319506E-1,-2.1993592E-1,5E-1,-4.6685565E-2,2.6326647E-1,7.361599E-1,-1.6225089E-1,2.4514253E-1,5.197811E-2,4.99548E-1,1.6787498E-1,-1.5358448E-1,2.0291229E-1,-6.243588E-1,-5.060528E-1,1.3868427E0,6.633597E-2,-1.5113486E-1,1.6592717E-1,-1.4415732E-1,1.4196672E-1,5E-1,-2.0105197E-1,-2.4944004E-1,-4.7329027E-2,-1.8975186E-1,1.6234548E0,-5.060528E-1,5E-1,3.7173793E-2,-4.7457796E-2,6.567332E-2,-1.7642936E-1,-7.583534E-2,1.3968007E-1,-2.4215357E-1,-5.6447145E-3],"split_indices":[4,13,16,0,14,12,0,0,0,0,0,13,0,0,0,13,10,0,3,1,21,1,0,4,4,0,0,18,18,0,0,0,0,15,0,8,0,4,0,0,0,3,18,0,0,0,0,0,0,0,3,0,0,0,0,0,0,0,0,0,0,0,0,0,0,0,0,0,0,3,0,0,0,0,0,0,7,0,0,0,0,0,0,0,0],"split_type":[0,0,0,0,0,0,0,0,0,0,0,0,0,0,0,0,0,0,0,0,0,0,0,0,0,0,0,0,0,0,0,0,0,0,0,0,0,0,0,0,0,0,0,0,0,0,0,0,0,0,0,0,0,0,0,0,0,0,0,0,0,0,0,0,0,0,0,0,0,0,0,0,0,0,0,0,0,0,0,0,0,0,0,0,0],"sum_hessian":[8.982185E1,5.60098E1,3.3812057E1,4.67212E1,9.288601E0,3.2804276E1,1.0077829E0,4.5532413E1,1.1887845E0,7.714974E0,1.5736272E0,3.1094097E1,1.7101772E0,2.3929094E1,2.1603317E1,2.2759193E1,8.334903E0,1.6304506E1,7.6245885E0,9.667702E0,1.1935616E1,1.8157219E1,4.6019745E0,5.5958757E0,2.7390275E0,3.140195E0,1.3164311E1,5.333497E0,2.2910914E0,3.1887972E0,6.4789047E0,1.0083528E1,1.8520877E0,3.8130054E0,1.4344214E1,2.7132406E0,1.8887337E0,4.3475485E0,1.248327E0,1.1847112E0,1.5543162E0,3.999103E0,9.165209E0,1.7874008E0,3.5460963E0,1.2678437E0,1.0232477E0,1.6914594E0,1.4973377E0,5.0488796E0,5.0346484E0,2.3781478E0,1.4348576E0,1.272059E1,1.6236248E0,1.5444235E0,1.168817E0,2.8648334E0,1.4827152E0,2.668065E0,1.3310379E0,4.440492E0,4.724716E0,3.7142549E0,1.3203936E0,1.1180857E1,1.539733E0,1.7427238E0,1.1221097E0,2.8116524E0,1.62884E0,3.4545798E0,1.2701364E0,1.2161368E0,2.4981182E0,7.200494E0,3.9803627E0,1.5536103E0,1.258042E0,1.303326E0,1.194792E0,4.235622E0,2.9648721E0,1.5926616E0,2.3877008E0],"tree_param":{"num_deleted":"0","num_feature":"24","num_nodes":"85","size_leaf_vector":"0"}},{"base_weights":[-3.4519473E-1,-5.317455E-1,-5.3133074E-2,-4.6466586E-1,-8.1125474E-1,-8.342074E-2,4.2276835E-1,-4.7890988E-1,2.034091E-2,-8.984476E-1,-2.3546113E-1,-1.1371584E-1,4.2937908E-1,-4.9614844E-1,-9.241608E-2,-3.4931874E-1,7.293812E-3,-3.8038427E-1,-6.0251904E-1,-8.35238E-1,-9.852722E-2,9.02311E-2,-5.5007756E-1,-5.2441275E-1,-6.2477373E-2,-8.246019E-1,-3.7490648E-1,9.699866E-2,-7.432362E-1,3.876211E-1,-2.4248141E-1,-2.1208642E-1,-6.1052316E-1,1.0693651E-1,-3.78941E-1,-9.118481E-1,-2.515038E-1,-8.296677E-3,-4.9773556E-1,-9.1413684E-2,5.844098E-1,5.161991E-1,-1.16775446E-1,-3.711612E-1,2.830596E-2,8.295106E-2,-3.9763206E-1,-6.6263497E-1,-5.1743407E-2,4.968858E-1,-1.4620751E-1,1.1744699E-1,-1.4975838E-1,-7.300594E-1,-3.0252245E-1,-2.569309E-1,2.6544306E-1,1.7713809E-1,7.4493927E-1,-7.790815E-1,-1.2647662E-1,4.7673568E-1,-5.936656E-1,-7.124232E-1,-2.024975E-1,-6.865039E-2,-1.8586719E-1,-4.7325236E-1,1.6732848E-1,-5.1576203E-1,2.391233E-1,-1.9873196E-1,5.430254E-1,8.575351E-1,1.8355675E-1,3.23858E-1,-5.1017785E-1,-7.857957E-1,-1.6061732E-1,-6.964674E-1,-1.2762526E-1,-1.0674587E-1,-7.319754E-1,8.061872E-2,4.166129E-1,-6.7441654E-1,-9.1276355E-2],"categories":[],"categories_nodes":[],"categories_segments":[],"categories_sizes":[],"default_left":[1,1,1,1,1,1,0,1,0,0,0,1,0,1,0,1,1,1,1,0,1,1,0,1,1,1,1,1,0,1,1,1,1,1,0,0,0,1,1,1,0,1,0,1,1,0,0,1,0,0,1,0,0,0,1,1,0,1,1,0,1,0,0,1,0,0,0,1,0,1,0,0,0,0,0,1,1,0,0,0,0,0,0,0,0,0,0],"id":9,"left_children":[1,3,5,7,9,11,-1,13,-1,-1,-1,15,-1,17,-1,19,21,23,25,-1,27,29,-1,31,33,35,37,39,-1,41,43,45,47,49,-1,-1,-1,51,53,55,-1,57,-1,59,61,-1,-1,63,-1,-1,65,-1,-1,-1,67,69,-1,71,73,-1,75,-1,-1,77,-1,-1,-1,79,-1,81,-1,-1,-1,-1,-1,83,85,-1,-1,-1,-1,-1,-1,-1,-1,-1,-1],"loss_changes":[4.5010767E0,5.720854E-1,5.183262E-1,3.079195E-1,2.1298218E-1,5.512897E-1,0E0,2.3378468E-1,0E0,0E0,0E0,8.957635E-1,0E0,2.6275063E-1,0E0,1.2157546E0,1.0517442E0,9.6736145E-1,6.567025E-1,0E0,1.1006318E0,2.0461109E0,0E0,2.711649E-1,4.6651584E-1,2.1254349E-1,5.0335574E-1,7.095932E-1,0E0,7.608651E-1,3.5640448E-1,2.931142E-1,2.9024935E-1,6.60497E-1,0E0,0E0,0E0,8.598714E-2,1.6122007E-1,4.236534E-1,0E0,5.4997015E-1,0E0,5.8018076E-1,1.4340435E0,0E0,0E0,8.734465E-2,0E0,0E0,7.236749E-4,0E0,0E0,0E0,5.833997E-1,7.164147E-1,0E0,7.754815E-1,1.5475368E-1,0E0,1.1059532E0,0E0,0E0,2.2706127E-1,0E0,0E0,0E0,2.8694618E-1,0E0,2.1831453E-1,0E0,0E0,0E0,0E0,0E0,3.672269E-2,1.6739994E-1,0E0,0E0,0E0,0E0,0E0,0E0,0E0,0E0,0E0,0E0],"parents":[2147483647,0,0,1,1,2,2,3,3,4,4,5,5,7,7,11,11,13,13,15,15,16,16,17,17,18,18,20,20,21,21,23,23,24,24,25,25,26,26,27,27,29,29,30,30,31,31,32,32,33,33,37,37,38,38,39,39,41,41,43,43,44,44,47,47,50,50,54,54,55,55,57,57,58,58,60,60,63,63,67,67,69,69,75,75,76,76],"right_children":[2,4,6,8,10,12,-1,14,-1,-1,-1,16,-1,18,-1,20,22,24,26,-1,28,30,-1,32,34,36,38,40,-1,42,44,46,48,50,-1,-1,-1,52,54,56,-1,58,-1,60,62,-1,-1,64,-1,-1,66,-1,-1,-1,68,70,-1,72,74,-1,76,-1,-1,78,-1,-1,-1,80,-1,82,-1,-1,-1,-1,-1,84,86,-1,-1,-1,-1,-1,-1,-1,-1,-1,-1],"split_conditions":[5E-1,1.5E0,5E-1,2.3332906E0,5E-1,5E-1,1.2683052E-1,5E-1,6.1022732E-3,-2.695343E-1,-7.063834E-2,-3.877468E-1,1.2881373E-1,-3.2828894E-2,-2.7724825E-2,5E-1,5E-1,-3.877468E-1,6.7700696E-1,-2.505714E-1,4E0,5.58701E-1,-1.6502327E-1,5E-1,5E-1,5E-1,1.0319248E0,1.5E0,-2.2297086E-1,1.5E0,5E-1,-9.7927666E-1,5E-1,5E-1,-1.1368231E-1,-2.7355444E-1,-7.545114E-2,5E-1,5E-1,5E-1,1.7532293E-1,1.5E0,-3.5032634E-2,7.953129E-1,1.5E0,2.488532E-2,-1.1928962E-1,5E-1,-1.5523023E-2,1.4906575E-1,-1.5113486E-1,3.5234097E-2,-4.4927515E-2,-2.1901782E-1,5E-1,-7.426647E-1,7.963292E-2,5E-1,2.5E0,-2.3372446E-1,1.0319248E0,1.430207E-1,-1.7809969E-1,-5.060528E-1,-6.074925E-2,-2.0595117E-2,-5.576016E-2,1.3868427E0,5.0198544E-2,5E-1,7.173699E-2,-5.961959E-2,1.6290762E-1,2.5726056E-1,5.506703E-2,5E-1,5E-1,-2.3573871E-1,-4.81852E-2,-2.0894022E-1,-3.828758E-2,-3.202376E-2,-2.1959262E-1,2.4185617E-2,1.2498387E-1,-2.0232497E-1,-2.7382908E-2],"split_indices":[4,13,22,0,14,17,0,20,0,0,0,0,0,0,0,18,14,0,0,0,7,0,0,1,3,15,0,7,0,8,10,0,13,18,0,0,0,3,18,8,0,4,0,0,7,0,0,21,0,0,0,0,0,0,3,0,0,15,13,0,0,0,0,0,0,0,0,0,0,15,0,0,0,0,0,18,13,0,0,0,0,0,0,0,0,0,0],"split_type":[0,0,0,0,0,0,0,0,0,0,0,0,0,0,0,0,0,0,0,0,0,0,0,0,0,0,0,0,0,0,0,0,0,0,0,0,0,0,0,0,0,0,0,0,0,0,0,0,0,0,0,0,0,0,0,0,0,0,0,0,0,0,0,0,0,0,0,0,0,0,0,0,0,0,0,0,0,0,0,0,0,0,0,0,0,0,0],"sum_hessian":[8.213087E1,4.9617584E1,3.2513283E1,4.216162E1,7.4559636E0,3.1343224E1,1.1700581E0,4.0970932E1,1.1906908E0,5.9887233E0,1.4672403E0,3.0329659E1,1.0135653E0,3.894995E1,2.0209794E0,9.651573E0,2.0678085E1,2.084268E1,1.8107273E1,2.4922757E0,7.159298E0,1.8729269E1,1.9488164E0,1.389702E1,6.945659E0,7.8374214E0,1.0269851E1,6.1451554E0,1.0141423E0,9.802459E0,8.926811E0,3.7518506E0,1.014517E1,4.955108E0,1.990551E0,6.2889333E0,1.5484881E0,2.8452215E0,7.424629E0,5.0179E0,1.1272556E0,7.7926097E0,2.0098486E0,5.7999606E0,3.1268501E0,1.6620103E0,2.0898402E0,9.1097355E0,1.0354347E0,1.5714891E0,3.3836188E0,1.5961678E0,1.2490537E0,2.1390874E0,5.285542E0,3.619241E0,1.3986589E0,3.8540976E0,3.938512E0,1.3557422E0,4.4442186E0,1.9525833E0,1.1742667E0,7.725527E0,1.3842087E0,2.0688443E0,1.3147745E0,3.8715103E0,1.4140319E0,2.3521876E0,1.2670535E0,2.1264644E0,1.7276332E0,2.8411286E0,1.0973835E0,2.1163304E0,2.3278883E0,6.4445634E0,1.2809632E0,1.7355582E0,2.1359522E0,1.3299654E0,1.0222222E0,1.1002381E0,1.0160922E0,1.2340785E0,1.0938097E0],"tree_param":{"num_deleted":"0","num_feature":"24","num_nodes":"87","size_leaf_vector":"0"}},{"base_weights":[-2.9621926E-1,-4.6524844E-1,-4.8576273E-2,-4.0142643E-1,-7.553975E-1,-1.25363385E-2,-4.3595913E-1,-7.293834E-1,-3.618676E-1,-8.5454947E-1,-2.0178169E-1,6.0550753E-2,-1.949129E-1,-4.1875547E-1,2.2890967E-1,-2.627293E-2,3.071642E-1,3.0614387E-3,-4.9231446E-1,-4.6276024E-1,1.0796489E-1,-2.6803467E-1,6.809699E-1,-1.3640851E-1,5.0773966E-1,9.573608E-1,-1.0329641E-1,1.7727473E-1,-4.0623343E-1,-6.674977E-1,-1.586786E-1,-5.4210836E-1,-2.7791396E-1,7.522599E-1,-5.864958E-1,-2.0307362E-2,-5.2992105E-1,2.7414197E-1,-4.6777126E-1,4.3951035E-1,-7.468631E-2,-4.1076958E-1,-7.523892E-1,-4.202886E-1,3.157437E-1,-1.3920498E-1,4.1108665E-1,-1.6483705E-1,-6.150816E-1,-3.433441E-1,2.5297192E-1,-4.6399453E-1,-3.0691208E-2,-8.5612005E-1,-2.0133922E-1,-7.7613366E-1,-1.7642526E-1,-2.4163099E-1,3.4041297E-1,-6.2636197E-1,-7.2655514E-2,9.522443E-3,-4.9277744E-1,-4.9859747E-1,-7.724555E-2,1.5704253E-1,-2.1530806E-1,-3.2086352E-1,2.6140872E-1,1.8180087E-1,-2.911981E-1],"categories":[],"categories_nodes":[],"categories_segments":[],"categories_sizes":[],"default_left":[1,1,1,1,1,1,0,0,1,0,0,1,1,1,1,1,1,1,1,1,1,0,0,1,0,0,1,1,0,0,0,1,1,0,0,1,1,0,0,0,1,1,1,1,0,1,0,0,0,0,0,1,0,0,0,0,1,1,0,0,1,1,0,0,1,0,0,0,0,0,0],"id":10,"left_children":[1,3,5,7,9,11,-1,-1,13,-1,-1,15,17,19,21,23,25,27,29,31,33,-1,-1,35,-1,-1,37,39,-1,-1,-1,41,43,-1,-1,45,47,-1,-1,-1,49,51,53,55,-1,57,-1,-1,-1,-1,-1,59,-1,-1,-1,-1,61,63,-1,-1,65,67,-1,-1,69,-1,-1,-1,-1,-1,-1],"loss_changes":[3.1842837E0,5.377817E-1,4.4402102E-1,2.467246E-1,2.1481276E-1,4.181421E-1,0E0,0E0,1.3430395E0,0E0,0E0,4.9039483E-1,5.289663E-1,8.427386E-1,1.0600234E0,1.1033052E0,1.6853199E0,5.263764E-1,1.0369855E-1,3.1510496E-1,1.9839772E0,0E0,0E0,6.9116974E-1,0E0,0E0,7.53693E-1,3.741488E-1,0E0,0E0,0E0,2.755084E-1,1.1122581E0,0E0,0E0,7.190658E-1,6.197214E-3,0E0,0E0,0E0,3.9401072E-1,2.9387808E-1,2.2404528E-1,7.1145654E-1,0E0,6.158801E-1,0E0,0E0,0E0,0E0,0E0,7.989025E-1,0E0,0E0,0E0,0E0,4.2206952E-1,3.6429423E-1,0E0,0E0,1.9856948E-1,5.373967E-1,0E0,0E0,4.4084316E-1,0E0,0E0,0E0,0E0,0E0,0E0],"parents":[2147483647,0,0,1,1,2,2,3,3,4,4,5,5,8,8,11,11,12,12,13,13,14,14,15,15,16,16,17,17,18,18,19,19,20,20,23,23,26,26,27,27,31,31,32,32,35,35,36,36,40,40,41,41,42,42,43,43,45,45,51,51,56,56,57,57,60,60,61,61,64,64],"right_children":[2,4,6,8,10,12,-1,-1,14,-1,-1,16,18,20,22,24,26,28,30,32,34,-1,-1,36,-1,-1,38,40,-1,-1,-1,42,44,-1,-1,46,48,-1,-1,-1,50,52,54,56,-1,58,-1,-1,-1,-1,-1,60,-1,-1,-1,-1,62,64,-1,-1,66,68,-1,-1,70,-1,-1,-1,-1,-1,-1],"split_conditions":[5E-1,1.5E0,1.5E0,-1.3341947E0,5E-1,1.5E0,-1.3078775E-1,-2.1881503E-1,5E-1,-2.5636485E-1,-6.053451E-2,5E-1,5E-1,5E-1,5E-1,5.5E0,5E-1,3.5E0,2.5E0,6.7700696E-1,-2.6944083E-1,-8.0410406E-2,2.0429097E-1,2.5E0,1.523219E-1,2.8720826E-1,1E0,5E-1,-1.2187003E-1,-2.0024931E-1,-4.7603585E-2,-3.2828894E-2,5E-1,2.2567798E-1,-1.7594875E-1,5E-1,-5.060528E-1,8.224259E-2,-1.4033139E-1,1.318531E-1,5E-1,5E-1,5E-1,5E-1,9.472312E-2,5E-1,1.23325996E-1,-4.9451116E-2,-1.8452449E-1,-1.0300323E-1,7.589158E-2,-2.6944083E-1,-9.207363E-3,-2.5683603E-1,-6.0401767E-2,-2.328401E-1,1.6234548E0,5E-1,1.02123894E-1,-1.879086E-1,-1.5113486E-1,1.2685368E0,-1.4783324E-1,-1.4957924E-1,-1.5113486E-1,4.7112763E-2,-6.459242E-2,-9.625906E-2,7.842262E-2,5.4540265E-2,-8.7359436E-2],"split_indices":[4,13,12,0,14,13,0,0,2,0,0,10,10,19,18,4,1,4,4,0,0,0,0,4,0,0,8,18,0,0,0,0,13,0,0,8,0,0,0,0,11,21,15,18,0,13,0,0,0,0,0,0,0,0,0,0,0,7,0,0,0,0,0,0,0,0,0,0,0,0,0],"split_type":[0,0,0,0,0,0,0,0,0,0,0,0,0,0,0,0,0,0,0,0,0,0,0,0,0,0,0,0,0,0,0,0,0,0,0,0,0,0,0,0,0,0,0,0,0,0,0,0,0,0,0,0,0,0,0,0,0,0,0,0,0,0,0,0,0,0,0,0,0,0,0],"sum_hessian":[7.561178E1,4.4416508E1,3.1195272E1,3.8361847E1,6.054662E0,2.9484556E1,1.7107166E0,2.2522142E0,3.610963E1,4.6739793E0,1.380683E0,2.1526028E1,7.958528E0,3.3203533E1,2.9060967E0,1.6581682E1,4.944346E0,5.3721204E0,2.5864077E0,3.07555E1,2.4480333E0,1.5782393E0,1.3278575E0,1.4363824E1,2.2178578E0,1.3977739E0,3.546572E0,4.1658397E0,1.2062808E0,1.0397735E0,1.5466343E0,2.0166128E1,1.0589373E1,1.2267091E0,1.2213243E0,1.1903458E1,2.4603665E0,1.8640578E0,1.6825141E0,1.676557E0,2.4892826E0,1.4231036E1,5.935093E0,8.776559E0,1.8128132E0,9.862533E0,2.0409245E0,1.0206091E0,1.4397573E0,1.3414835E0,1.1477991E0,1.2289296E1,1.9417398E0,4.5289397E0,1.4061532E0,2.6813207E0,6.095238E0,8.535841E0,1.3266916E0,8.261161E0,4.028135E0,4.4496756E0,1.6455625E0,2.536967E0,5.998874E0,1.5045867E0,2.5235484E0,1.8064317E0,2.643244E0,2.7814565E0,3.2174175E0],"tree_param":{"num_deleted":"0","num_feature":"24","num_nodes":"71","size_leaf_vector":"0"}},{"base_weights":[-2.5094435E-1,-4.0169054E-1,-4.235019E-2,-3.4167585E-1,-6.986607E-1,-9.475731E-2,1.9124334E-1,-3.6132422E-1,3.300765E-2,-8.090627E-1,-1.7271407E-1,-4.1202683E-2,-6.484616E-1,6.760769E-1,-9.998552E-2,-3.7846455E-1,7.078383E-2,3.1884007E-2,-3.5989383E-1,-5.0769633E-1,1.914296E-1,-2.6886883E-1,-4.8789975E-1,8.287144E-2,-3.1661975E-1,-6.582547E-1,1.4158987E-1,6.1824006E-1,-3.001211E-1,-3.243822E-1,2.8709784E-1,-7.1681845E-1,-2.974826E-1,-1.8625848E-3,6.9162565E-1,-4.529917E-1,-6.182033E-2,-8.260029E-1,-1.8523803E-1,-3.9909485E-1,1.8839009E-1,-2.487006E-1,1.244693E-1,-2.0858239E-1,-6.849074E-1,2.1409886E-1,-1.6832346E-1,-5.7376486E-1,-1.8801051E-1,-4.7859192E-2,-5.535237E-1,2.3874313E-1,-2.5199258E-1,-6.5161556E-1,4.6707388E-2,-7.96969E-1,-2.1716286E-1,-3.8873187E-1,6.695469E-2,2.0575437E-1,-3.6582035E-1,-2.5480577E-1,3.2513744E-1,-1.7040467E-1,4.1688123E-1,-3.6401033E-1,-4.3987245E-3,-1.5496895E-1,2.5598392E-1,-1.765558E-1,2.8381345E-1,-1.3017344E-1,-5.406085E-1,-3.621358E-1,-5.6131307E-2,1.2929326E-1,-4.5876288E-1,1.5393485E-1,6.985786E-1],"categories":[],"categories_nodes":[],"categories_segments":[],"categories_sizes":[],"default_left":[1,1,1,1,1,1,1,1,0,0,0,1,0,0,1,1,0,1,1,0,1,1,1,1,0,0,0,0,0,1,0,1,1,1,0,1,1,0,0,1,0,1,1,1,1,0,1,0,1,1,0,1,1,0,1,0,0,0,1,0,1,1,0,1,1,0,0,0,0,0,0,0,0,0,0,0,0,0,0],"id":11,"left_children":[1,3,5,7,9,11,13,15,-1,-1,-1,17,-1,-1,19,21,-1,23,25,-1,27,29,31,33,-1,-1,-1,-1,-1,35,-1,37,39,41,-1,43,45,-1,-1,47,-1,49,51,53,55,-1,57,-1,59,61,-1,63,65,-1,67,-1,-1,-1,69,-1,71,73,-1,75,77,-1,-1,-1,-1,-1,-1,-1,-1,-1,-1,-1,-1,-1,-1],"loss_changes":[2.2265096E0,4.973402E-1,3.982213E-1,2.792611E-1,2.0783806E-1,7.451055E-1,9.177143E-1,2.829604E-1,0E0,0E0,0E0,5.891315E-1,0E0,0E0,6.47595E-1,2.697115E-1,0E0,4.0103966E-1,7.9762197E-1,0E0,9.0468705E-1,6.7731524E-1,4.6229267E-1,9.9130964E-1,0E0,0E0,0E0,0E0,0E0,5.689837E-1,0E0,2.1426249E-1,5.7726383E-1,5.8743435E-1,0E0,5.2080774E-1,2.4087739E-1,0E0,0E0,2.1405041E-1,0E0,3.637836E-1,5.96637E-1,8.378256E-1,1.1888194E-1,0E0,3.1586593E-1,0E0,4.562173E-1,4.6397495E-1,0E0,8.057213E-1,9.243119E-2,0E0,2.7020055E-1,0E0,0E0,0E0,2.3791602E-1,0E0,9.884107E-2,5.934356E-2,0E0,3.848923E-1,4.3412447E-1,0E0,0E0,0E0,0E0,0E0,0E0,0E0,0E0,0E0,0E0,0E0,0E0,0E0,0E0],"parents":[2147483647,0,0,1,1,2,2,3,3,4,4,5,5,6,6,7,7,11,11,14,14,15,15,17,17,18,18,20,20,21,21,22,22,23,23,29,29,31,31,32,32,33,33,35,35,36,36,39,39,41,41,42,42,43,43,44,44,46,46,48,48,49,49,51,51,52,52,54,54,58,58,60,60,61,61,63,63,64,64],"right_children":[2,4,6,8,10,12,14,16,-1,-1,-1,18,-1,-1,20,22,-1,24,26,-1,28,30,32,34,-1,-1,-1,-1,-1,36,-1,38,40,42,-1,44,46,-1,-1,48,-1,50,52,54,56,-1,58,-1,60,62,-1,64,66,-1,68,-1,-1,-1,70,-1,72,74,-1,76,78,-1,-1,-1,-1,-1,-1,-1,-1,-1,-1,-1,-1,-1,-1],"split_conditions":[5E-1,1.5E0,1.5E0,5E-1,5E-1,1.5E0,5E-1,2.2741375E0,9.902296E-3,-2.4271883E-1,-5.1814225E-2,1.5E0,-1.9453849E-1,2.0282307E-1,1.5E0,-3.2828894E-2,2.123515E-2,5E-1,1.5E0,-1.5230891E-1,4.5E0,5E-1,6.7700696E-1,5E-1,-9.498593E-2,-1.9747642E-1,4.247696E-2,1.8547203E-1,-9.003633E-2,-3.877468E-1,8.612935E-2,5E-1,5E-1,-3.877468E-1,2.074877E-1,-8.6097074E-1,-2.6944083E-1,-2.4780087E-1,-5.557141E-2,1.2685368E0,5.651703E-2,5E-1,1.0319248E0,-1.3341947E0,-5.060528E-1,6.422966E-2,-1.5113486E-1,-1.7212947E-1,1.3868427E0,5E-1,-1.6605712E-1,5E-1,5E-1,-1.9548468E-1,5E-1,-2.3909071E-1,-6.514886E-2,-1.16619565E-1,5E-1,6.1726313E-2,1.6234548E0,-7.426647E-1,9.7541235E-2,5E-1,2.5E0,-1.0920311E-1,-1.3196174E-3,-4.6490684E-2,7.6795176E-2,-5.296674E-2,8.5144036E-2,-3.9052036E-2,-1.6218257E-1,-1.08640745E-1,-1.6839392E-2,3.878798E-2,-1.3762887E-1,4.6180457E-2,2.0957358E-1],"split_indices":[4,13,15,20,14,12,18,0,0,0,0,8,0,0,4,0,0,14,7,0,4,14,0,8,0,0,0,0,0,0,0,15,21,0,0,0,0,0,0,0,0,2,0,0,0,0,0,0,0,3,0,1,10,0,3,0,0,0,18,0,0,0,0,13,4,0,0,0,0,0,0,0,0,0,0,0,0,0,0],"split_type":[0,0,0,0,0,0,0,0,0,0,0,0,0,0,0,0,0,0,0,0,0,0,0,0,0,0,0,0,0,0,0,0,0,0,0,0,0,0,0,0,0,0,0,0,0,0,0,0,0,0,0,0,0,0,0,0,0,0,0,0,0,0,0,0,0,0,0,0,0,0,0,0,0,0,0,0,0,0,0],"sum_hessian":[7.034797E1,4.0299057E1,3.004891E1,3.531316E1,4.9858966E0,2.502815E1,5.02076E0,3.358749E1,1.7256706E0,3.675971E0,1.3099258E0,2.3800558E1,1.2275922E0,1.3882158E0,3.6325443E0,3.2425423E1,1.1620684E0,2.0092596E1,3.7079606E0,1.2047861E0,2.4277582E0,1.7927998E1,1.4497424E1,1.8193087E1,1.8995099E0,2.128802E0,1.5791585E0,1.1615006E0,1.2662578E0,1.6679127E1,1.2488699E0,5.3278446E0,9.1695795E0,1.684529E1,1.3477976E0,1.0708537E1,5.97059E0,3.96051E0,1.3673347E0,7.7313066E0,1.4382728E0,5.37484E0,1.1470449E1,6.138615E0,4.569922E0,1.381433E0,4.589157E0,3.290377E0,4.4409294E0,3.9375074E0,1.4373325E0,9.080052E0,2.3903975E0,1.6765879E0,4.462027E0,3.1188552E0,1.4510666E0,2.0327013E0,2.5564559E0,1.3326279E0,3.1083016E0,2.7362468E0,1.2012604E0,2.7673688E0,6.312683E0,1.3220687E0,1.0683287E0,2.4044247E0,2.0576026E0,1.2917734E0,1.2646824E0,2.066724E0,1.0415777E0,1.2423381E0,1.4939088E0,1.6274949E0,1.1398737E0,4.064856E0,2.247827E0],"tree_param":{"num_deleted":"0","num_feature":"24","num_nodes":"79","size_leaf_vector":"0"}},{"base_weights":[-2.1452151E-1,-3.4696072E-1,-3.8693976E-2,-3.015524E-1,-7.2629774E-1,2.6058268E-2,-2.0457146E-1,-3.3312884E-1,8.3049424E-2,9.257326E-2,-2.4878085E-1,-3.0492485E-1,1.2010362E-1,-3.6662588E-1,-7.967658E-2,3.4797394E-1,-1.9406325E-1,1.4466593E-1,-3.0485457E-1,-3.6199644E-1,2.7356964E-2,-9.809407E-2,-6.3051677E-1,-4.1346434E-1,-6.1863944E-2,-5.756212E-1,2.1776202E-1,5.040868E-2,4.44258E-1,1.1196828E-1,-7.100001E-1,-2.6023978E-1,2.5859264E-1,-4.8646328E-1,-1.3686395E-1,5.026806E-1,-4.638399E-1,-3.0442476E-1,7.6121897E-1,-3.7608873E-2,4.069921E-1,7.8931385E-1,-2.1141188E-1,1.4239338E-1,-4.45954E-1,-3.9079675E-1,-7.761532E-1,-3.2636568E-1,2.3494722E-1,-6.152112E-1,-6.1442938E-2,-3.0573723E-1,1.0393244E-1,-4.3871072E-1,-1.0180311E-2,2.9654565E-1,-7.3233074E-1,2.7941418E-1,-2.6879674E-1,-4.5871747E-1,-1.1776579E-1,3.3248693E-1,9.535595E-2,-4.8832244E-1,1.1299817E-1,-3.5252714E-1,-7.026173E-1],"categories":[],"categories_nodes":[],"categories_segments":[],"categories_sizes":[],"default_left":[1,1,1,1,0,1,1,1,1,1,1,1,0,1,1,0,0,1,0,1,0,1,0,1,1,0,1,1,1,0,0,1,0,1,1,0,1,0,0,1,0,0,0,0,0,1,0,0,0,0,0,1,1,1,0,0,0,1,1,1,0,0,0,0,0,0,0],"id":12,"left_children":[1,3,5,7,-1,9,11,13,15,17,19,21,-1,23,25,-1,-1,27,-1,29,-1,31,-1,33,35,-1,37,39,41,-1,-1,43,-1,45,47,-1,49,-1,-1,51,-1,-1,-1,-1,-1,53,-1,-1,-1,-1,-1,55,57,59,-1,-1,-1,61,63,65,-1,-1,-1,-1,-1,-1,-1],"loss_changes":[1.5494692E0,4.3821812E-1,3.2713223E-1,4.6227074E-1,0E0,4.3317303E-1,3.14377E-1,2.5325537E-1,3.2562733E-1,4.3316776E-1,1.5505469E-1,3.9570987E-1,0E0,3.8994622E-1,8.86745E-1,0E0,0E0,4.6593902E-1,0E0,6.3421357E-1,0E0,3.760951E-1,0E0,4.39332E-1,1.3800297E0,0E0,1.3532618E0,4.6356845E-1,1.0742471E0,0E0,0E0,3.7524152E-1,0E0,2.3522282E-1,5.4334825E-1,0E0,1.736834E-1,0E0,0E0,5.0124544E-1,0E0,0E0,0E0,0E0,0E0,2.9867196E-1,0E0,0E0,0E0,0E0,0E0,1.3804612E0,6.5347964E-1,4.0625095E-2,0E0,0E0,0E0,3.1814456E-2,3.3513552E-1,1.02724075E-1,0E0,0E0,0E0,0E0,0E0,0E0,0E0],"parents":[2147483647,0,0,1,1,2,2,3,3,5,5,6,6,7,7,8,8,9,9,10,10,11,11,13,13,14,14,17,17,19,19,21,21,23,23,24,24,26,26,27,27,28,28,31,31,33,33,34,34,36,36,39,39,45,45,51,51,52,52,53,53,57,57,58,58,59,59],"right_children":[2,4,6,8,-1,10,12,14,16,18,20,22,-1,24,26,-1,-1,28,-1,30,-1,32,-1,34,36,-1,38,40,42,-1,-1,44,-1,46,48,-1,50,-1,-1,52,-1,-1,-1,-1,-1,54,-1,-1,-1,-1,-1,56,58,60,-1,-1,-1,62,64,66,-1,-1,-1,-1,-1,-1,-1],"split_conditions":[5E-1,2.5E0,4.5E0,5E-1,-2.1788932E-1,5E-1,4.5E0,5E-1,-1.5113486E-1,4.5E0,1.5E0,5E-1,3.6031086E-2,5E-1,5E-1,1.04392186E-1,-5.8218975E-2,1.5E0,-9.1456376E-2,5E-1,8.207089E-3,2.0378305E-1,-1.8915504E-1,1.2685368E0,5E-1,-1.7268637E-1,5E-1,5E-1,4.40395E-1,3.3590484E-2,-2.1300004E-1,-7.426647E-1,7.757779E-2,5E-1,5E-1,1.5080419E-1,7.953129E-1,-9.132743E-2,2.283657E-1,5E-1,1.22097634E-1,2.3679416E-1,-6.342357E-2,4.2718016E-2,-1.337862E-1,5E-1,-2.3284598E-1,-9.790971E-2,7.048417E-2,-1.8456337E-1,-1.8432882E-2,-1.5113486E-1,5E-1,9.136189E-1,-3.0540936E-3,8.89637E-2,-2.1969923E-1,2.0378305E-1,3.2208902E-1,3.2208902E-1,-3.532974E-2,9.9746086E-2,2.8606785E-2,-1.4649674E-1,3.3899453E-2,-1.05758145E-1,-2.107852E-1],"split_indices":[4,13,4,14,0,19,10,2,0,13,13,10,0,21,3,0,0,15,0,7,0,0,0,0,3,0,18,10,0,0,0,0,0,13,3,0,0,0,0,1,0,0,0,0,0,19,0,0,0,0,0,0,11,0,0,0,0,0,0,0,0,0,0,0,0,0,0],"split_type":[0,0,0,0,0,0,0,0,0,0,0,0,0,0,0,0,0,0,0,0,0,0,0,0,0,0,0,0,0,0,0,0,0,0,0,0,0,0,0,0,0,0,0,0,0,0,0,0,0,0,0,0,0,0,0,0,0,0,0,0,0,0,0,0,0,0,0],"sum_hessian":[6.6116035E1,3.7155766E1,2.896027E1,3.4786606E1,2.3691611E0,2.1435553E1,7.5247164E0,3.2270947E1,2.515659E0,1.779265E1,3.6429029E0,5.7945247E0,1.7301916E0,2.8109394E1,4.1615534E0,1.1553814E0,1.3602777E0,1.6293041E1,1.4996084E0,2.363109E0,1.2797937E0,4.3392897E0,1.4552352E0,2.4055634E1,4.053759E0,1.209534E0,2.9520192E0,1.3282407E1,3.0106351E0,1.287648E0,1.075461E0,3.1690655E0,1.1702242E0,1.8432343E1,5.6232915E0,1.5817659E0,2.4719934E0,1.7297785E0,1.2222408E0,1.1370332E1,1.9120749E0,1.8390042E0,1.1716309E0,1.0739596E0,2.095106E0,1.5622291E1,2.810052E0,3.8058062E0,1.8174852E0,1.4119776E0,1.0600158E0,3.5276613E0,7.8426704E0,1.3739996E1,1.8822945E0,1.5890394E0,1.9386218E0,5.502457E0,2.3402133E0,1.2529663E1,1.2103331E0,3.645006E0,1.8574512E0,1.3087095E0,1.0315038E0,1.0432769E1,2.0968945E0],"tree_param":{"num_deleted":"0","num_feature":"24","num_nodes":"67","size_leaf_vector":"0"}},{"base_weights":[-1.8110316E-1,-2.937059E-1,-3.7529573E-2,-2.4163257E-1,-5.917019E-1,-4.022461E-1,-9.566188E-3,-6.3032633E-1,-2.0114727E-1,-7.270707E-1,-9.451114E-2,-5.4097857E-2,2.0590733E-1,-2.5445232E-1,2.2914511E-1,-6.3099493E-3,-5.780509E-1,4.0265775E-1,-1.4892417E-1,-2.9662472E-1,1.4016405E-1,-1.6318707E-1,4.890141E-1,4.4683695E-2,-4.9161085E-1,7.1881896E-1,-1.5890017E-1,-3.175688E-1,7.495048E-2,4.2249182E-1,-1.7209522E-1,1.1606547E-1,-3.0923432E-1,-3.6075282E-1,-9.037556E-2,1.6764337E-1,-2.4335402E-1,-4.6999612E-1,8.409434E-3,-2.7590412E-1,-7.2461236E-1,3.9333758E-1,-4.5360634E-1,9.5171325E-2,6.263444E-1,-3.259508E-1,1.712277E-1,-6.031157E-1,-6.3202836E-2,1.0224814E-2,5.396867E-1,-3.9218673E-1,-1.293685E-2,-1.4217888E-1,2.0054783E-1],"categories":[],"categories_nodes":[],"categories_segments":[],"categories_sizes":[],"default_left":[1,1,1,1,1,0,1,0,1,0,0,1,1,1,1,1,0,1,0,1,1,0,0,1,0,0,0,1,0,0,0,1,1,1,1,1,0,0,0,1,0,0,1,1,0,1,0,0,0,1,0,0,0,0,0],"id":13,"left_children":[1,3,5,7,9,-1,11,-1,13,-1,-1,15,17,19,21,23,-1,25,-1,27,29,-1,-1,31,-1,-1,-1,33,-1,-1,-1,35,37,39,41,43,-1,-1,-1,45,-1,-1,47,49,-1,51,-1,-1,-1,53,-1,-1,-1,-1,-1],"loss_changes":[1.0203979E0,4.0959978E-1,2.9384577E-1,3.7681818E-1,2.4133432E-1,0E0,2.811065E-1,0E0,7.567879E-1,0E0,0E0,5.9999037E-1,4.1090447E-1,5.003886E-1,4.7567406E-1,5.9373426E-1,0E0,7.3628455E-1,0E0,2.2013927E-1,3.6724815E-1,0E0,0E0,5.8723944E-1,0E0,0E0,0E0,2.0358443E-1,0E0,0E0,0E0,3.9094895E-1,2.049354E-1,4.1427255E-1,1.088406E0,5.091771E-1,0E0,0E0,0E0,4.5294988E-1,0E0,0E0,1.616441E-1,5.9693193E-1,0E0,3.3297777E-1,0E0,0E0,0E0,4.4661254E-1,0E0,0E0,0E0,0E0,0E0],"parents":[2147483647,0,0,1,1,2,2,3,3,4,4,6,6,8,8,11,11,12,12,13,13,14,14,15,15,17,17,19,19,20,20,23,23,27,27,31,31,32,32,33,33,34,34,35,35,39,39,42,42,43,43,45,45,49,49],"right_children":[2,4,6,8,10,-1,12,-1,14,-1,-1,16,18,20,22,24,-1,26,-1,28,30,-1,-1,32,-1,-1,-1,34,-1,-1,-1,36,38,40,42,44,-1,-1,-1,46,-1,-1,48,50,-1,52,-1,-1,-1,54,-1,-1,-1,-1,-1],"split_conditions":[5E-1,1.5E0,-1.4525006E0,-1.3341947E0,5E-1,-1.2067383E-1,1.5E0,-1.8909791E-1,5E-1,-2.1812122E-1,-2.8353343E-2,1.5E0,4.40395E-1,5E-1,5E-1,5E-1,-1.7341527E-1,4.5E0,-4.4677254E-2,2.3332906E0,-5.060528E-1,-4.8956122E-2,1.4670423E-1,1.5E0,-1.4748326E-1,2.156457E-1,-4.7670055E-2,5E-1,2.2485144E-2,1.2674755E-1,-5.162857E-2,5E-1,2E0,5E-1,5E-1,5E-1,-7.300621E-2,-1.4099884E-1,2.5228304E-3,5E-1,-2.1738371E-1,1.18001275E-1,7.953129E-1,6.5E0,1.8790333E-1,5E-1,5.136831E-2,-1.8093471E-1,-1.8960852E-2,5E-1,1.61906E-1,-1.1765602E-1,-3.8810552E-3,-4.2653665E-2,6.016435E-2],"split_indices":[4,13,0,0,14,0,15,0,2,0,0,12,0,19,18,21,0,4,0,0,0,0,0,8,0,0,0,21,0,0,0,14,7,13,3,8,0,0,0,12,0,0,0,4,0,15,0,0,0,13,0,0,0,0,0],"split_type":[0,0,0,0,0,0,0,0,0,0,0,0,0,0,0,0,0,0,0,0,0,0,0,0,0,0,0,0,0,0,0,0,0,0,0,0,0,0,0,0,0,0,0,0,0,0,0,0,0,0,0,0,0,0,0],"sum_hessian":[6.2798763E1,3.4609406E1,2.818936E1,3.1002695E1,3.6067107E0,1.0542612E0,2.7135098E1,1.5501978E0,2.9452497E1,2.4714565E0,1.1352541E0,2.3108273E1,4.0268254E0,2.6569674E1,2.8828247E0,2.2104263E1,1.0040089E0,2.503741E0,1.5230844E0,2.422869E1,2.3409836E0,1.2968984E0,1.5859264E0,2.0824072E1,1.2801914E0,1.422704E0,1.081037E0,2.307348E1,1.1552083E0,1.0440209E0,1.2969627E0,1.7888245E1,2.9358275E0,1.8894266E1,4.1792154E0,1.610998E1,1.7782642E0,1.6308233E0,1.3050042E0,1.6747234E1,2.1470304E0,1.7568021E0,2.4224133E0,1.4954705E1,1.155275E0,1.5305172E1,1.4420629E0,1.3576385E0,1.0647748E0,1.3414254E1,1.5404506E0,1.2423365E1,2.881807E0,7.589679E0,5.824576E0],"tree_param":{"num_deleted":"0","num_feature":"24","num_nodes":"55","size_leaf_vector":"0"}},{"base_weights":[-1.4970326E-1,-6.13682E-1,-1.2138703E-1,-9.143601E-2,-5.688985E-1,-4.0914413E-2,-3.173614E-1,-8.4304415E-2,3.3520114E-1,-2.0271318E-1,-4.979083E-1,-1.17628105E-1,4.100072E-1,7.103209E-1,-1.8566069E-1,-4.5542723E-1,2.8482187E-3,-1.471987E-1,3.3310524E-1,-9.993603E-2,-5.901273E-1,1.6562138E-1,-3.4319276E-1,1.5070562E-1,-2.0826755E-1,-1.929681E-2,3.7778848E-1,-1.611411E-1,3.8297203E-1,-2.6885393E-1,4.373002E-1,3.010675E-1,-3.0211273E-1,2.9527986E-1,-5.071121E-1,6.0694754E-2,5.8640534E-1,-3.2722405E-1,5.2779417E-2,-3.5449392E-1,-1.3685641E-2,-6.065881E-1,4.065917E-1],"categories":[],"categories_nodes":[],"categories_segments":[],"categories_sizes":[],"default_left":[1,0,1,1,0,1,1,1,1,1,0,1,0,0,0,1,1,1,0,0,0,1,0,1,1,1,0,1,1,1,0,0,0,0,0,0,0,1,1,0,0,0,0],"id":14,"left_children":[1,-1,3,5,-1,7,9,11,13,15,-1,17,-1,-1,-1,19,21,23,-1,-1,-1,25,-1,27,29,31,-1,33,35,37,-1,-1,-1,-1,-1,-1,-1,39,41,-1,-1,-1,-1],"loss_changes":[7.242949E-1,0E0,7.327348E-1,6.2697554E-1,0E0,7.947759E-1,1.08100414E-1,7.550528E-1,1.120338E0,4.0977398E-1,0E0,5.951921E-1,0E0,0E0,0E0,1.10214174E-1,3.5705212E-1,7.435879E-1,0E0,0E0,0E0,1.7596745E-1,0E0,5.8611757E-1,1.4046738E0,3.8529062E-1,0E0,7.489079E-1,2.5587118E-1,5.936918E-1,0E0,0E0,0E0,0E0,0E0,0E0,0E0,2.1853161E-1,1.5477741E0,0E0,0E0,0E0,0E0],"parents":[2147483647,0,0,2,2,3,3,5,5,6,6,7,7,8,8,9,9,11,11,15,15,16,16,17,17,21,21,23,23,24,24,25,25,27,27,28,28,29,29,37,37,38,38],"right_children":[2,-1,4,6,-1,8,10,12,14,16,-1,18,-1,-1,-1,20,22,24,-1,-1,-1,26,-1,28,30,32,-1,34,36,38,-1,-1,-1,-1,-1,-1,-1,40,42,-1,-1,-1,-1],"split_conditions":[-1.4525006E0,-1.8410459E-1,1.5E0,1.5E0,-1.7066956E-1,5E-1,5E-1,5.5E0,5E-1,5E-1,-1.4937249E-1,5E-1,1.23002164E-1,2.1309628E-1,-5.569821E-2,2.5E0,3.5E0,-8.6097074E-1,9.9931575E-2,-2.998081E-2,-1.770382E-1,9.136189E-1,-1.0295783E-1,5E-1,5E-1,-3.2859382E-1,1.1333655E-1,5E-1,5E-1,5E-1,1.3119006E-1,9.032025E-2,-9.0633824E-2,8.858396E-2,-1.5213363E-1,1.8208427E-2,1.759216E-1,5E-1,5E-1,-1.0634818E-1,-4.1056923E-3,-1.8197644E-1,1.21977516E-1],"split_indices":[0,0,12,13,0,10,10,4,3,4,0,20,0,0,0,13,4,0,0,0,0,0,0,3,12,0,0,18,18,13,0,0,0,0,0,0,0,14,1,0,0,0,0],"split_type":[0,0,0,0,0,0,0,0,0,0,0,0,0,0,0,0,0,0,0,0,0,0,0,0,0,0,0,0,0,0,0,0,0,0,0,0,0,0,0,0,0,0,0],"sum_hessian":[5.9799206E1,2.2505262E0,5.754868E1,5.506745E1,2.481229E0,4.596894E1,9.098511E0,4.190992E1,4.05902E0,6.863148E0,2.2353625E0,3.9976936E1,1.9329817E0,2.1481798E0,1.9108402E0,2.5332637E0,4.3298845E0,3.8147663E1,1.8292744E0,1.1747799E0,1.3584838E0,3.299313E0,1.0305717E0,6.2400126E0,3.190765E1,2.2485747E0,1.0507383E0,2.7944016E0,3.4456108E0,2.9703522E1,2.2041297E0,1.0240408E0,1.224534E0,1.26805E0,1.5263517E0,1.8357629E0,1.609848E0,2.5126225E1,4.577296E0,2.2995573E1,2.130653E0,1.3489487E0,3.228347E0],"tree_param":{"num_deleted":"0","num_feature":"24","num_nodes":"43","size_leaf_vector":"0"}},{"base_weights":[-1.1671832E-1,-5.410457E-1,-9.22818E-2,-6.67694E-2,-4.9778777E-1,-2.2025172E-2,-2.6963985E-1,-5.6799304E-2,2.7688268E-1,-4.1918832E-1,-1.4517859E-1,-9.465398E-2,2.9856807E-1,5.8352846E-1,-2.0087852E-1,-5.601933E-2,-5.9963465E-1,3.75888E-1,-3.1907144E-1,-6.0328436E-3,-2.420945E-1,3.3904694E-2,5.5203545E-1,-4.1464135E-1,-2.6477313E-2,-5.4156147E-2,5.1621354E-1,-7.104329E-1,-9.710185E-2,4.2465907E-1,-3.984879E-1,-6.313428E-1,-7.882038E-2,-1.0500883E-1,3.8414773E-1,2.543283E-1,-2.6355845E-1,1.4291279E-1,-2.0960924E-1,4.1573608E-1,-8.7284245E-2,5.567649E-2,-3.6782947E-1,-1.3305387E-1,3.505294E-1,-5.820043E-1,2.7055554E-2,-4.788607E-1,9.415385E-2],"categories":[],"categories_nodes":[],"categories_segments":[],"categories_sizes":[],"default_left":[1,0,1,1,0,1,1,1,1,1,1,1,1,0,0,0,0,0,1,1,1,1,0,1,0,1,0,0,1,0,0,0,0,1,0,1,1,1,1,0,0,0,1,0,0,0,0,0,0],"id":15,"left_children":[1,-1,3,5,-1,7,9,11,13,15,17,19,21,-1,-1,-1,-1,-1,23,25,27,29,-1,31,-1,33,-1,-1,35,-1,-1,-1,-1,37,-1,39,41,43,45,-1,-1,-1,47,-1,-1,-1,-1,-1,-1],"loss_changes":[5.547704E-1,0E0,5.4970336E-1,4.8575243E-1,0E0,4.8833418E-1,1.196726E-1,5.8733225E-1,8.3634615E-1,2.2039503E-1,7.382016E-1,4.9921498E-1,2.6582235E-1,0E0,0E0,0E0,0E0,0E0,1.4720702E-1,6.5521514E-1,9.0611213E-1,6.9981974E-1,0E0,2.5558662E-1,0E0,5.6987095E-1,0E0,0E0,7.7621573E-1,0E0,0E0,0E0,0E0,6.023712E-1,0E0,2.792024E-1,3.1066698E-1,4.5596445E-1,1.4196111E0,0E0,0E0,0E0,3.8890547E-1,0E0,0E0,0E0,0E0,0E0,0E0],"parents":[2147483647,0,0,2,2,3,3,5,5,6,6,7,7,8,8,9,9,10,10,11,11,12,12,18,18,19,19,20,20,21,21,23,23,25,25,28,28,33,33,35,35,36,36,37,37,38,38,42,42],"right_children":[2,-1,4,6,-1,8,10,12,14,16,18,20,22,-1,-1,-1,-1,-1,24,26,28,30,-1,32,-1,34,-1,-1,36,-1,-1,-1,-1,38,-1,40,42,44,46,-1,-1,-1,48,-1,-1,-1,-1,-1,-1],"split_conditions":[-1.4525006E0,-1.6231373E-1,1.5E0,1.5E0,-1.4933634E-1,5E-1,-1.5113486E-1,1.5E0,1.5E0,5E-1,8.5477084E-2,3.2208902E-1,5.5E0,1.7505854E-1,-6.0263555E-2,-1.68058E-2,-1.798904E-1,1.127664E-1,2.5E0,5E-1,6.7700696E-1,2.5E0,1.6561064E-1,9.136189E-1,-7.943194E-3,5E-1,1.5486407E-1,-2.1312988E-1,1.0319248E0,1.2739773E-1,-1.19546376E-1,-1.8940286E-1,-2.3646114E-2,-8.6097074E-1,1.1524432E-1,5E-1,5E-1,5E-1,-3.877468E-1,1.2472083E-1,-2.6185274E-2,1.6702948E-2,2.2741375E0,-3.991616E-2,1.0515883E-1,-1.746013E-1,8.116666E-3,-1.4365822E-1,2.8246157E-2],"split_indices":[0,0,12,13,0,10,0,7,8,1,0,0,4,0,0,0,0,0,4,20,0,7,0,0,0,14,0,0,0,0,0,0,0,0,0,3,1,3,0,0,0,0,0,0,0,0,0,0,0],"split_type":[0,0,0,0,0,0,0,0,0,0,0,0,0,0,0,0,0,0,0,0,0,0,0,0,0,0,0,0,0,0,0,0,0,0,0,0,0,0,0,0,0,0,0,0,0,0,0,0,0],"sum_hessian":[5.731752E1,1.9699246E0,5.5347595E1,5.3167236E1,2.1803594E0,4.446811E1,8.699125E0,4.0559505E1,3.9086063E0,2.8757272E0,5.8233986E0,3.7317944E1,3.2415612E0,2.2457898E0,1.6628166E0,1.3895488E0,1.4861783E0,1.1664743E0,4.6569242E0,2.395836E1,1.3359582E1,2.1403904E0,1.1011709E0,3.1959207E0,1.4610034E0,2.2757622E1,1.2007391E0,2.236314E0,1.1123268E1,1.1337252E0,1.0066652E0,1.4076087E0,1.7883121E0,2.1073107E1,1.6845142E0,3.405512E0,7.7177563E0,6.144136E0,1.4928971E1,2.165404E0,1.240108E0,2.0149255E0,5.702831E0,2.7920475E0,3.3520885E0,5.2340055E0,9.694966E0,4.5683575E0,1.1344731E0],"tree_param":{"num_deleted":"0","num_feature":"24","num_nodes":"49","size_leaf_vector":"0"}},{"base_weights":[-9.462784E-2,-7.4756116E-2,-5.667347E-1,-1.594871E-1,2.6524741E-2,-1.22304544E-1,-5.675737E-1,9.768977E-2,-1.6763858E-1,-2.6486292E-1,-6.924829E-2,1.6143087E-1,-1.7343906E-1,-3.8636285E-1,-7.90119E-3,-1.2150908E-1,-4.1892886E-1,6.905177E-2,-2.1782355E-1,2.0577131E-1,-1.9635412E-1,-2.6039118E-1,-2.2162238E-2,3.0112246E-1,-2.6650158E-1,-3.658276E-1,1.256356E-1,1.6668747E-1,-3.2653588E-1,-5.9369814E-1,-1.0293412E-1,1.3791187E-1,5.449986E-1,5.5865563E-2,-4.649435E-1,-1.3748477E-1,3.426665E-1,3.7639573E-2,5.8678335E-1,1.862747E-1,-2.1516858E-1,2.4052642E-1,-1.6584197E-1,-1.4127114E-1,2.4233337E-1,-5.3718543E-1,-7.750927E-2,3.6831912E-1,-7.4461326E-2,-4.0835613E-1,1.3068637E-1,1.3767943E-1,-5.9312487E-1,5.161953E-1,-6.406892E-2,2.1574783E-1,-1.9700974E-1,1.7578068E-1,6.477278E-1,1.750949E-1,-2.845144E-1,3.9274153E-1,-7.405151E-2,4.258457E-2,-4.2633352E-1,-2.9847616E-2,5.135713E-1],"categories":[],"categories_nodes":[],"categories_segments":[],"categories_sizes":[],"default_left":[1,1,0,1,1,1,0,1,1,1,1,1,1,0,1,1,0,1,1,1,0,0,0,0,1,0,1,1,0,0,1,1,0,0,0,0,0,1,0,0,1,1,1,1,1,0,1,1,1,0,0,1,0,0,0,0,1,1,0,0,0,0,0,0,0,0,0],"id":16,"left_children":[1,3,-1,5,7,9,-1,11,13,15,17,19,21,-1,23,25,-1,27,29,31,-1,-1,-1,-1,33,-1,35,37,-1,-1,39,41,-1,-1,-1,-1,-1,43,-1,-1,45,47,49,51,53,-1,55,57,59,-1,-1,61,-1,-1,-1,-1,63,65,-1,-1,-1,-1,-1,-1,-1,-1,-1],"loss_changes":[4.875052E-1,4.7922936E-1,0E0,3.9004725E-1,3.766082E-1,2.0120302E-1,0E0,3.6862335E-1,2.541173E-1,1.1515558E-1,4.775266E-1,3.017853E-1,4.9919114E-2,0E0,5.0177974E-1,3.661869E-1,0E0,5.3398556E-1,4.1786015E-1,2.7353197E-1,0E0,0E0,0E0,0E0,2.4361661E-1,0E0,2.4017185E-1,5.5367154E-1,0E0,0E0,3.550848E-1,4.7505772E-1,0E0,0E0,0E0,0E0,0E0,3.7090576E-1,0E0,0E0,2.8885266E-1,4.6392953E-1,3.4945488E-1,7.796036E-1,4.237579E-1,0E0,2.6648617E-1,3.1019163E-1,2.5748202E-1,0E0,0E0,2.5780693E-1,0E0,0E0,0E0,0E0,2.963765E-1,4.3480176E-1,0E0,0E0,0E0,0E0,0E0,0E0,0E0,0E0,0E0],"parents":[2147483647,0,0,1,1,3,3,4,4,5,5,7,7,8,8,9,9,10,10,11,11,12,12,14,14,15,15,17,17,18,18,19,19,24,24,26,26,27,27,30,30,31,31,37,37,40,40,41,41,42,42,43,43,44,44,46,46,47,47,48,48,51,51,56,56,57,57],"right_children":[2,4,-1,6,8,10,-1,12,14,16,18,20,22,-1,24,26,-1,28,30,32,-1,-1,-1,-1,34,-1,36,38,-1,-1,40,42,-1,-1,-1,-1,-1,44,-1,-1,46,48,50,52,54,-1,56,58,60,-1,-1,62,-1,-1,-1,-1,64,66,-1,-1,-1,-1,-1,-1,-1,-1,-1],"split_conditions":[1.5E0,5E-1,-1.700204E-1,2.5E0,4.5E0,-7.426647E-1,-1.7027213E-1,5E-1,1.5E0,-9.7927666E-1,3.2208902E-1,4.5E0,5E-1,-1.1590886E-1,5E-1,-1.0975826E0,-1.2567866E-1,5E-1,6.7700696E-1,2.5E0,-5.890624E-2,-7.8117356E-2,-6.648672E-3,9.033674E-2,5E-1,-1.0974828E-1,5E-1,5E-1,-9.796077E-2,-1.7810945E-1,1.0319248E0,5E-1,1.6349958E-1,1.675967E-2,-1.3948305E-1,-4.1245434E-2,1.0279996E-1,-1.5113486E-1,1.7603502E-1,5.5882413E-2,1.2685368E0,5.58701E-1,5E-1,5E-1,5E-1,-1.6115564E-1,1.3868427E0,-3.2828894E-2,5E-1,-1.2250684E-1,3.9205913E-2,5E-1,-1.7793746E-1,1.5485859E-1,-1.9220676E-2,6.4724356E-2,5E-1,5E-1,1.9431834E-1,5.2528474E-2,-8.535432E-2,1.1782246E-1,-2.2215452E-2,1.2775371E-2,-1.2790006E-1,-8.954286E-3,1.540714E-1],"split_indices":[16,4,0,13,4,0,0,19,7,0,0,13,13,0,3,0,0,21,0,13,0,0,0,0,18,0,3,14,0,0,0,11,0,0,0,0,0,0,0,0,0,0,13,3,1,0,0,0,15,0,0,18,0,0,0,0,3,15,0,0,0,0,0,0,0,0,0],"split_type":[0,0,0,0,0,0,0,0,0,0,0,0,0,0,0,0,0,0,0,0,0,0,0,0,0,0,0,0,0,0,0,0,0,0,0,0,0,0,0,0,0,0,0,0,0,0,0,0,0,0,0,0,0,0,0,0,0,0,0,0,0,0,0,0,0,0,0],"sum_hessian":[5.548006E1,5.4350697E1,1.1293614E0,2.9280281E1,2.5070417E1,2.8026377E1,1.2539034E0,1.8709757E1,6.3606596E0,6.5187755E0,2.1507603E1,1.5476017E1,3.2337403E0,2.085838E0,4.2748213E0,4.303333E0,2.215443E0,1.14161825E1,1.0091419E1,1.4147576E1,1.3284411E0,1.5954217E0,1.6383187E0,1.8726274E0,2.402194E0,1.9225507E0,2.380782E0,9.62039E0,1.7957926E0,1.3867941E0,8.704625E0,1.2961325E1,1.1862516E0,1.1890583E0,1.2131356E0,1.2417951E0,1.138987E0,8.193158E0,1.427232E0,2.2491813E0,6.4554443E0,9.843973E0,3.117351E0,4.5372543E0,3.6559036E0,1.0640663E0,5.391378E0,6.8824167E0,2.961557E0,1.5074046E0,1.6099465E0,3.2352705E0,1.301984E0,1.5689132E0,2.0869904E0,1.327716E0,4.063662E0,5.0391154E0,1.843301E0,1.429567E0,1.5319899E0,1.0796996E0,2.155571E0,2.3855627E0,1.6780992E0,3.6990044E0,1.3401111E0],"tree_param":{"num_deleted":"0","num_feature":"24","num_nodes":"67","size_leaf_vector":"0"}},{"base_weights":[-8.236337E-2,-6.0279258E-2,-4.5111933E-1,-4.424929E-1,-3.9940245E-2,-1.0167671E-3,-2.2051644E-1,9.2965655E-2,-7.819867E-2,-7.5410485E-2,-3.5027295E-1,-3.2259334E-2,3.8038048E-1,-1.4300577E-1,1.6220802E-1,2.4872966E-1,-4.1285223E-1,-7.5549155E-1,3.3181322E-1,-1.0113042E-1,4.2533392E-1,6.372447E-1,7.0621945E-2,-2.0377794E-1,4.0593737E-1,-3.8293818E-1,4.5614967E-1,-2.5969325E-2,4.340943E-1,-2.0620296E-2,-3.9389178E-1,-2.80324E-1,3.2271466E-1,-3.6821303E-1,2.7736595E-1,7.656413E-1,-1.4492154E-2,-3.36774E-1,1.2753251E-1,-8.1587064E-1,-6.506874E-2,8.0138814E-1,-5.6394886E-2,-5.3231823E-1,9.776101E-2,3.7052587E-1,-4.8676323E-2,2.7881106E-2,-3.5654894E-1,-5.805346E-1,6.173731E-1,1.1746662E-1,4.571946E-1,-2.2591196E-1,2.2849719E-1,-1.7000845E-1,2.2614725E-1],"categories":[],"categories_nodes":[],"categories_segments":[],"categories_sizes":[],"default_left":[1,1,0,0,1,1,1,1,1,1,1,1,1,1,1,1,0,0,0,1,0,0,1,1,0,0,1,0,0,1,0,0,0,1,1,0,0,1,1,0,1,0,1,0,0,1,1,1,0,0,0,0,0,0,0,0,0],"id":17,"left_children":[1,3,-1,-1,5,7,9,11,13,15,17,19,21,23,25,27,-1,-1,-1,29,-1,-1,31,33,-1,-1,35,-1,-1,37,-1,-1,-1,39,41,-1,-1,43,45,-1,47,-1,49,-1,-1,51,53,55,-1,-1,-1,-1,-1,-1,-1,-1,-1],"loss_changes":[4.212945E-1,3.9523092E-1,0E0,0E0,3.619631E-1,3.2206053E-1,1.4554799E-1,7.330214E-1,4.0290517E-1,7.136651E-1,1.5075042E0,5.116468E-1,4.4475585E-1,7.4085724E-1,1.0789846E0,1.8812369E-1,0E0,0E0,0E0,3.155632E-1,0E0,0E0,4.3683094E-1,1.5600536E0,0E0,0E0,6.116272E-1,0E0,0E0,5.9687006E-1,0E0,0E0,0E0,1.8689607E0,9.658593E-1,0E0,0E0,3.960166E-1,3.938826E-1,0E0,2.6817745E-1,0E0,1.8239919E0,0E0,0E0,2.9765666E-2,3.449964E-1,3.5838193E-1,0E0,0E0,0E0,0E0,0E0,0E0,0E0,0E0,0E0],"parents":[2147483647,0,0,1,1,4,4,5,5,6,6,7,7,8,8,9,9,10,10,11,11,12,12,13,13,14,14,15,15,19,19,22,22,23,23,26,26,29,29,33,33,34,34,37,37,38,38,40,40,42,42,45,45,46,46,47,47],"right_children":[2,4,-1,-1,6,8,10,12,14,16,18,20,22,24,26,28,-1,-1,-1,30,-1,-1,32,34,-1,-1,36,-1,-1,38,-1,-1,-1,40,42,-1,-1,44,46,-1,48,-1,50,-1,-1,52,54,56,-1,-1,-1,-1,-1,-1,-1,-1,-1],"split_conditions":[1.5E0,-1.4525006E0,-1.353358E-1,-1.3274787E-1,1.5E0,-1.5113486E-1,5E-1,-3.877468E-1,5E-1,5E-1,5E-1,5E-1,5E-1,5E-1,5E-1,5E-1,-1.2385567E-1,-2.2664748E-1,9.954397E-2,5E-1,1.2760018E-1,1.9117342E-1,-2.6944083E-1,5E-1,1.21781215E-1,-1.14881456E-1,9.727719E-1,-7.790798E-3,1.302283E-1,5E-1,-1.1816754E-1,-8.409721E-2,9.68144E-2,5E-1,5E-1,2.2969238E-1,-4.3476466E-3,5E-1,5E-1,-2.447612E-1,1.6234548E0,2.4041645E-1,7.953129E-1,-1.5969548E-1,2.9328305E-2,-9.7927666E-1,5E-1,7.953129E-1,-1.06964685E-1,-1.7416038E-1,1.8521194E-1,3.5239987E-2,1.3715838E-1,-6.777359E-2,6.854916E-2,-5.1002536E-2,6.7844175E-2],"split_indices":[12,0,0,0,13,0,3,0,13,7,7,14,18,2,1,15,0,0,0,19,0,0,0,15,0,0,0,0,0,1,0,0,0,18,1,0,0,2,18,0,0,0,0,0,0,0,3,0,0,0,0,0,0,0,0,0,0],"split_type":[0,0,0,0,0,0,0,0,0,0,0,0,0,0,0,0,0,0,0,0,0,0,0,0,0,0,0,0,0,0,0,0,0,0,0,0,0,0,0,0,0,0,0,0,0,0,0,0,0,0,0,0,0,0,0,0,0],"sum_hessian":[5.407209E1,5.2114517E1,1.9575746E0,1.5843986E0,5.0530117E1,4.2397007E1,8.13311E0,1.9025566E1,2.337144E1,4.585897E0,3.5472128E0,1.38701725E1,5.1553936E0,1.8728027E1,4.643415E0,2.4731407E0,2.1127563E0,2.1577203E0,1.3894925E0,1.273279E1,1.1373818E0,2.2403636E0,2.91503E0,1.7427456E1,1.3005702E0,1.5205755E0,3.1228395E0,1.342919E0,1.1302217E0,1.0826036E1,1.906754E0,1.1717765E0,1.7432535E0,1.3163447E1,4.2640085E0,1.5058185E0,1.617021E0,3.048173E0,7.7778635E0,4.6319776E0,8.53147E0,1.1139551E0,3.1500535E0,1.9469846E0,1.1011884E0,2.8058329E0,4.97203E0,7.1543674E0,1.3771029E0,1.8495905E0,1.3004631E0,1.3166809E0,1.489152E0,3.145572E0,1.8264585E0,3.651914E0,3.5024536E0],"tree_param":{"num_deleted":"0","num_feature":"24","num_nodes":"57","size_leaf_vector":"0"}},{"base_weights":[-6.4311974E-2,-4.5617267E-2,-3.9161175E-1,-1.9074494E-2,-2.760878E-1,2.295968E-2,-1.8046607E-1,-3.9302927E-1,1.7803084E-2,-1.017836E-2,3.2971436E-1,-5.207734E-1,-5.7371166E-3,-1.4001676E-1,-4.9499193E-1,2.7378548E-2,-3.5096025E-1,-3.4863528E-2,5.680685E-1,1.7591645E-1,-7.454108E-2,-3.3408545E-2,2.5416982E-1,-4.7063994E-1,-1.11708365E-1,-2.33099E-1,2.766989E-1,-7.341178E-2,2.4370964E-1,4.956879E-2,5.8540565E-1,1.0798112E-1,-6.528913E-1,9.354391E-3,-3.9900818E-1,5.550088E-1,-1.282605E-1,6.1743695E-1,-2.763948E-1,2.6853454E-1,-9.733116E-2,-6.199157E-1,8.8277645E-2,-5.804248E-1,1.09153325E-2,-5.979379E-1,9.941074E-2,1.747359E-1,-2.8187898E-1],"categories":[],"categories_nodes":[],"categories_segments":[],"categories_sizes":[],"default_left":[1,1,0,1,1,1,1,1,0,1,1,0,1,0,0,1,1,0,0,0,1,1,1,0,0,1,0,1,1,1,0,1,0,1,1,0,0,0,1,0,0,0,1,0,0,0,0,0,0],"id":18,"left_children":[1,3,-1,5,7,9,11,13,-1,15,17,-1,19,-1,-1,21,23,-1,-1,-1,25,27,29,-1,-1,31,-1,33,35,37,-1,39,-1,41,43,-1,-1,-1,45,-1,-1,-1,47,-1,-1,-1,-1,-1,-1],"loss_changes":[3.1011558E-1,3.1184286E-1,0E0,3.2677895E-1,1.8843576E-1,3.9592364E-1,5.880579E-1,2.9237747E-2,0E0,4.681037E-1,3.4959295E-1,0E0,1.0783795E-1,0E0,0E0,4.6611747E-1,5.132234E-2,0E0,0E0,0E0,4.0974715E-1,3.1789282E-1,4.5438004E-1,0E0,0E0,7.597715E-1,0E0,6.6173005E-1,4.9328434E-1,1.189055E0,0E0,1.4197233E-1,0E0,1.0701199E0,3.7606508E-1,0E0,0E0,0E0,5.6528527E-1,0E0,0E0,0E0,6.5866196E-1,0E0,0E0,0E0,0E0,0E0,0E0],"parents":[2147483647,0,0,1,1,3,3,4,4,5,5,6,6,7,7,9,9,10,10,12,12,15,15,16,16,20,20,21,21,22,22,25,25,27,27,28,28,29,29,31,31,33,33,34,34,38,38,42,42],"right_children":[2,4,-1,6,8,10,12,14,-1,16,18,-1,20,-1,-1,22,24,-1,-1,-1,26,28,30,-1,-1,32,-1,34,36,38,-1,40,-1,42,44,-1,-1,-1,46,-1,-1,-1,48,-1,-1,-1,-1,-1,-1],"split_conditions":[1.5E0,2.5E0,-1.17483534E-1,1.0319248E0,7.953129E-1,7.953129E-1,1.2685368E0,-3.2828894E-2,5.3409254E-3,5.58701E-1,5E-1,-1.5623203E-1,1.3868427E0,-4.2005032E-2,-1.4849758E-1,-3.2828894E-2,6.7700696E-1,-1.0459059E-2,1.7042056E-1,5.2774936E-2,5E-1,1.5E0,5E-1,-1.4119199E-1,-3.351251E-2,5E-1,8.300967E-2,5E-1,5E-1,5E-1,1.756217E-1,1.6234548E0,-1.9586739E-1,-1.0975826E0,5E-1,1.6650265E-1,-3.847815E-2,1.8523109E-1,5E-1,8.0560364E-2,-2.9199349E-2,-1.8597472E-1,-1.5113486E-1,-1.7412744E-1,3.2745998E-3,-1.7938137E-1,2.9823223E-2,5.2420773E-2,-8.4563695E-2],"split_indices":[12,13,0,0,0,0,0,0,0,0,18,0,0,0,0,0,0,0,0,0,13,15,13,0,0,3,0,13,3,1,0,0,0,0,15,0,0,0,4,0,0,0,0,0,0,0,0,0,0],"split_type":[0,0,0,0,0,0,0,0,0,0,0,0,0,0,0,0,0,0,0,0,0,0,0,0,0,0,0,0,0,0,0,0,0,0,0,0,0,0,0,0,0,0,0,0,0,0,0,0,0],"sum_hessian":[5.2602234E1,5.0837852E1,1.764381E0,4.6558567E1,4.2792826E0,3.7618603E1,8.939964E0,2.819894E0,1.4593887E0,3.4823513E1,2.7950892E0,2.3610497E0,6.5789146E0,1.4916629E0,1.3282312E0,3.2195023E1,2.6284912E0,1.4424707E0,1.3526186E0,1.3796467E0,5.1992683E0,2.606223E1,6.1327944E0,1.1074072E0,1.521084E0,3.8139265E0,1.3853415E0,2.3416973E1,2.645255E0,4.5017543E0,1.6310405E0,2.514046E0,1.2998807E0,1.944528E1,3.971694E0,1.1721836E0,1.4730713E0,1.3156106E0,3.1861434E0,1.2380013E0,1.2760445E0,1.403137E0,1.8042143E1,2.464892E0,1.506802E0,1.3984944E0,1.7876492E0,1.505391E1,2.9882326E0],"tree_param":{"num_deleted":"0","num_feature":"24","num_nodes":"49","size_leaf_vector":"0"}},{"base_weights":[-5.881896E-2,-1.2330064E-1,1.9138722E-2,-9.1839954E-2,-3.6110806E-1,9.527947E-2,-1.8837231E-1,-1.2020643E-1,8.4391855E-2,1.8086219E-1,-7.1884796E-2,-3.7298658E-1,6.8066623E-3,-1.5681891E-1,1.5729365E-1,-1.5548876E-1,4.3690726E-1,1.0861463E-2,6.239063E-1,-5.0919443E-1,1.0999872E-1,-5.593795E-1,4.9431432E-2,3.21086E-1,-3.1753856E-1,-2.5275004E-1,1.2534221E-2,3.883845E-1,-1.3335897E-1,-5.277093E-1,2.3996222E-1,-8.834475E-2,3.935002E-1,1.7907263E-1,7.4870616E-1,2.9214558E-1,-1.3460076E-1,-1.1644551E-1,-5.466295E-1,-1.3048775E-1,4.0042937E-1,1.4120784E-3,-3.535559E-1,3.8406145E-2,4.4672504E-1,-5.6704235E-1,4.906093E-4,-1.20751135E-1,-6.813353E-1,-5.9626883E-1,8.3265506E-2,-1.0995216E-1,2.646341E-1,1.2970802E-1,-3.333068E-1,2.186769E-1,-2.4126332E-1,-2.872252E-1,2.0695665E-1,2.0596932E-1,-1.41993E-1,-8.80156E-2,3.4707516E-1,-4.4619617E-1,8.034792E-2,-3.2092524E-1,4.8247582E-1],"categories":[],"categories_nodes":[],"categories_segments":[],"categories_sizes":[],"default_left":[1,1,1,1,0,1,1,1,1,1,1,1,1,1,1,1,0,1,1,0,1,0,0,0,0,1,1,0,0,0,0,1,0,0,0,1,0,1,1,1,0,1,0,0,0,0,1,0,0,0,1,1,0,1,0,1,0,1,0,1,0,0,0,0,0,0,0],"id":19,"left_children":[1,3,5,7,-1,9,11,13,15,17,19,21,23,25,27,29,-1,31,33,-1,35,-1,-1,-1,-1,37,39,-1,-1,-1,-1,41,-1,-1,-1,43,-1,45,47,49,-1,51,-1,-1,-1,-1,53,-1,-1,-1,55,57,-1,59,-1,61,-1,63,-1,65,-1,-1,-1,-1,-1,-1,-1],"loss_changes":[2.6741442E-1,1.8374604E-1,4.0876693E-1,1.448505E-1,0E0,2.8138447E-1,2.5388974E-1,2.646726E-1,4.3353397E-1,9.4914854E-1,6.181803E-1,3.1131583E-1,5.4770494E-1,3.5035086E-1,2.7026734E-1,6.138872E-1,0E0,4.2158023E-1,6.0330868E-2,0E0,2.983563E-1,0E0,0E0,0E0,0E0,4.847107E-1,5.3382444E-1,0E0,0E0,0E0,0E0,2.1256669E-1,0E0,0E0,0E0,1.2592289E-1,0E0,5.599978E-1,1.510371E-1,7.5617397E-1,0E0,2.534066E-1,0E0,0E0,0E0,0E0,4.5010436E-1,0E0,0E0,0E0,3.0507183E-1,4.012158E-1,0E0,1.8507043E-1,0E0,2.1073548E-1,0E0,2.8828764E-1,0E0,1.0698051E0,0E0,0E0,0E0,0E0,0E0,0E0,0E0],"parents":[2147483647,0,0,1,1,2,2,3,3,5,5,6,6,7,7,8,8,9,9,10,10,11,11,12,12,13,13,14,14,15,15,17,17,18,18,20,20,25,25,26,26,31,31,35,35,37,37,38,38,39,39,41,41,46,46,50,50,51,51,53,53,55,55,57,57,59,59],"right_children":[2,4,6,8,-1,10,12,14,16,18,20,22,24,26,28,30,-1,32,34,-1,36,-1,-1,-1,-1,38,40,-1,-1,-1,-1,42,-1,-1,-1,44,-1,46,48,50,-1,52,-1,-1,-1,-1,54,-1,-1,-1,56,58,-1,60,-1,62,-1,64,-1,66,-1,-1,-1,-1,-1,-1,-1],"split_conditions":[5E-1,1.5E0,4.5E0,5E-1,-1.08332425E-1,5.58701E-1,6.5E0,5E-1,-2.6944083E-1,1.5E0,7.953129E-1,5E-1,5E-1,6.7700696E-1,-6.243588E-1,5E-1,1.3107218E-1,1.5E0,-3.2859382E-1,-1.5275833E-1,5E-1,-1.6781387E-1,1.482943E-2,9.63258E-2,-9.5261574E-2,5E-1,5E-1,1.1651535E-1,-4.000769E-2,-1.583128E-1,7.198867E-2,1.5E0,1.1805007E-1,5.3721793E-2,2.2461186E-1,5E-1,-4.038023E-2,-9.7927666E-1,-5.060528E-1,5E-1,1.2012882E-1,-3.2828894E-2,-1.0606677E-1,1.1521844E-2,1.3401751E-1,-1.7011271E-1,-3.2828894E-2,-3.622534E-2,-2.0440058E-1,-1.7888066E-1,1.6234548E0,5E-1,7.9390235E-2,5E-1,-9.9992044E-2,1.2685368E0,-7.2379E-2,5E-1,6.2087E-2,5E-1,-4.25979E-2,-2.640468E-2,1.0412256E-1,-1.3385886E-1,2.4104377E-2,-9.627757E-2,1.4474276E-1],"split_indices":[4,13,4,2,0,0,4,19,0,7,0,13,3,0,0,18,0,15,0,0,7,0,0,0,0,3,13,0,0,0,0,13,0,0,0,15,0,0,0,18,0,0,0,0,0,0,0,0,0,0,0,3,0,15,0,0,0,15,0,1,0,0,0,0,0,0,0],"split_type":[0,0,0,0,0,0,0,0,0,0,0,0,0,0,0,0,0,0,0,0,0,0,0,0,0,0,0,0,0,0,0,0,0,0,0,0,0,0,0,0,0,0,0,0,0,0,0,0,0,0,0,0,0,0,0,0,0,0,0,0,0,0,0,0,0,0,0],"sum_hessian":[5.1727848E1,2.7992544E1,2.3735306E1,2.5946192E1,2.046352E0,1.7759695E1,5.97561E0,2.262272E1,3.3234725E0,1.1691884E1,6.067811E0,2.602747E0,3.3728628E0,2.0370049E1,2.2526724E0,2.310282E0,1.0131904E0,9.190071E0,2.5018125E0,1.2537669E0,4.8140445E0,1.5809273E0,1.0218198E0,1.718116E0,1.6547467E0,1.2689537E1,7.6805115E0,1.0675998E0,1.1850727E0,1.0178117E0,1.2924705E0,7.9087086E0,1.2813629E0,1.0815696E0,1.4202429E0,2.6478648E0,2.1661794E0,9.622671E0,3.0668654E0,6.0963197E0,1.5841917E0,6.652084E0,1.2566248E0,1.475051E0,1.1728139E0,1.1895902E0,8.433081E0,1.1926514E0,1.874214E0,1.3547403E0,4.741579E0,5.083595E0,1.5684888E0,6.5203743E0,1.9127067E0,3.5757496E0,1.1658297E0,3.3200727E0,1.7635221E0,5.2802386E0,1.2401354E0,1.1480427E0,2.427707E0,2.1683776E0,1.1516951E0,1.7620113E0,3.5182276E0],"tree_param":{"num_deleted":"0","num_feature":"24","num_nodes":"67","size_leaf_vector":"0"}},{"base_weights":[-5.3865366E-2,-1.6974753E-2,-1.9101763E-1,-4.9709916E-2,2.7093664E-1,-5.0776315E-1,-3.703968E-2,-1.0361593E-1,2.0287792E-1,1.06555186E-1,3.642851E-1,-1.7653666E-1,-6.444521E-1,-1.62327E-1,1.2912847E-1,-6.214923E-2,-5.0957215E-1,4.209201E-1,-1.8201695E-1,-3.0834618E-1,2.4482207E-2,3.646863E-1,-1.5175717E-1,-8.813122E-2,2.7334148E-1,5.1166785E-1,1.4557196E-1,-4.429369E-1,1.6137765E-1,5.5815194E-2,-1.821223E-2,-1.14620574E-1,2.703865E-1,-4.755972E-2,-4.159811E-1,-1.03726976E-1,2.5677657E-1,5.5430774E-2,-5.902667E-1,4.7276367E-2,-1.7785507E-1,3.6167175E-1,2.7354397E-2,-2.1138372E-1,-6.971833E-1,-1.3206476E-1,1.1940863E-1,-4.7368485E-1,1.4501269E-2],"categories":[],"categories_nodes":[],"categories_segments":[],"categories_sizes":[],"default_left":[1,1,1,1,1,1,1,1,1,0,0,0,0,1,1,1,0,1,1,0,1,0,0,1,0,0,0,0,0,0,0,1,0,1,1,1,1,0,1,1,1,0,0,0,0,0,0,0,0],"id":20,"left_children":[1,3,5,7,9,11,13,15,17,-1,-1,-1,-1,19,21,23,-1,25,27,-1,29,-1,-1,31,-1,-1,-1,-1,-1,-1,-1,33,-1,35,37,39,41,-1,43,45,47,-1,-1,-1,-1,-1,-1,-1,-1],"loss_changes":[2.576921E-1,4.0684238E-1,5.09576E-1,5.4281336E-1,2.894777E-2,4.311496E-2,1.9518578E-1,5.111125E-1,6.706339E-1,0E0,0E0,0E0,0E0,1.497827E-1,3.3021638E-1,2.8902942E-1,0E0,4.5961857E-2,3.6337417E-1,0E0,5.3161113E-3,0E0,0E0,3.060783E-1,0E0,0E0,0E0,0E0,0E0,0E0,0E0,5.3951955E-1,0E0,4.32899E-1,4.3599653E-1,2.4096866E-1,8.614299E-2,0E0,1.2700558E-3,1.14485145E-1,8.118037E-1,0E0,0E0,0E0,0E0,0E0,0E0,0E0,0E0],"parents":[2147483647,0,0,1,1,2,2,3,3,4,4,5,5,6,6,7,7,8,8,13,13,14,14,15,15,17,17,18,18,20,20,23,23,31,31,33,33,34,34,35,35,36,36,38,38,39,39,40,40],"right_children":[2,4,6,8,10,12,14,16,18,-1,-1,-1,-1,20,22,24,-1,26,28,-1,30,-1,-1,32,-1,-1,-1,-1,-1,-1,-1,34,-1,36,38,40,42,-1,44,46,48,-1,-1,-1,-1,-1,-1,-1,-1],"split_conditions":[1.0319248E0,7.953129E-1,1.2685368E0,1.5E0,9.136189E-1,1.1502309E0,5E-1,2.5E0,4.5E0,3.1966556E-2,1.0928554E-1,-5.2961003E-2,-1.9333564E-1,1.5051488E0,1.5051488E0,5E-1,-1.5287165E-1,2.5E0,-3.877468E-1,-9.250386E-2,1.8600667E0,1.094059E-1,-4.5527153E-2,5E-1,8.2002446E-2,1.5350036E-1,4.367159E-2,-1.3288108E-1,4.84133E-2,1.674456E-2,-5.4636695E-3,2.0378305E-1,8.1115946E-2,5E-1,5E-1,-8.6097074E-1,5E-1,1.6629232E-2,4.40395E-1,-1.0975826E0,-3.877468E-1,1.0850153E-1,8.206319E-3,-6.341512E-2,-2.0915501E-1,-3.961943E-2,3.582259E-2,-1.4210546E-1,4.350381E-3],"split_indices":[0,0,0,7,0,0,3,13,7,0,0,0,0,0,0,20,0,7,0,0,0,0,0,10,0,0,0,0,0,0,0,0,0,14,18,0,3,0,0,0,0,0,0,0,0,0,0,0,0],"split_type":[0,0,0,0,0,0,0,0,0,0,0,0,0,0,0,0,0,0,0,0,0,0,0,0,0,0,0,0,0,0,0,0,0,0,0,0,0,0,0,0,0,0,0,0,0,0,0,0,0],"sum_hessian":[5.057186E1,4.073808E1,9.833784E0,3.732196E1,3.4161172E0,2.465143E0,7.3686414E0,3.1243841E1,6.0781198E0,2.0129328E0,1.4031845E0,1.3895317E0,1.0756111E0,4.2142787E0,3.1543624E0,2.939442E1,1.8494216E0,3.8203187E0,2.2578008E0,2.0002172E0,2.2140615E0,1.553344E0,1.6010183E0,2.7965914E1,1.4285059E0,2.2278266E0,1.5924922E0,1.1182493E0,1.1395515E0,1.0996919E0,1.1143696E0,2.6675283E1,1.2906309E0,2.276686E1,3.908424E0,1.9776201E1,2.9906578E0,1.2390271E0,2.6693969E0,6.6309E0,1.3145302E1,1.65673E0,1.3339276E0,1.2427003E0,1.4266965E0,1.6636722E0,4.9672275E0,4.6032724E0,8.542029E0],"tree_param":{"num_deleted":"0","num_feature":"24","num_nodes":"49","size_leaf_vector":"0"}},{"base_weights":[-4.590879E-2,-2.7975125E-2,-3.7047988E-1,-3.4072366E-1,-1.2677493E-2,2.2116477E-2,-1.4133766E-1,-6.0889474E-3,2.4242695E-1,-4.4588867E-1,-9.280798E-4,-4.6306223E-2,1.8760052E-1,7.501382E-2,3.1358245E-1,-1.085359E-1,1.2933306E-1,-1.5188287E-2,-3.8793898E-1,3.3600447E-1,-9.0052985E-2,-2.3871525E-1,4.1411936E-2,2.8763902E-1,-9.103547E-2,1.8986708E-2,-2.2732385E-1,4.1980085E-1,7.540283E-2,6.124774E-2,1.5895837E-3,-3.320657E-2,2.6011908E-1,-5.1039857E-1,2.4293897E-1,9.002447E-2,5.40094E-1,3.4274183E-2,-3.187937E-1,-1.213884E-1,8.0715173E-1,1.4279282E-1,-5.880526E-2,-5.489352E-1,1.9333646E-2,-1.9147976E-1,6.0445736E-3],"categories":[],"categories_nodes":[],"categories_segments":[],"categories_sizes":[],"default_left":[1,1,0,0,1,1,1,1,1,0,1,1,1,0,0,1,1,1,0,1,0,0,1,0,0,1,1,1,0,0,0,1,1,0,0,0,0,1,1,1,0,0,0,0,0,0,0],"id":21,"left_children":[1,3,-1,-1,5,7,9,11,13,-1,15,17,19,-1,-1,21,23,25,-1,27,-1,-1,29,-1,-1,31,33,35,-1,-1,-1,37,39,-1,-1,-1,-1,41,43,45,-1,-1,-1,-1,-1,-1,-1],"loss_changes":[2.849625E-1,2.3088674E-1,0E0,0E0,2.1759109E-1,2.4117756E-1,4.4145954E-1,2.826664E-1,2.8921843E-2,0E0,1.2722121E-1,3.122568E-1,2.87598E-1,0E0,0E0,1.0681389E-1,1.6953525E-1,2.1071015E-1,0E0,6.183976E-2,0E0,0E0,2.398544E-3,0E0,0E0,3.2883868E-1,6.600835E-1,7.120925E-2,0E0,0E0,0E0,4.3108276E-1,1.0663909E0,0E0,0E0,0E0,0E0,1.9564477E-1,3.42424E-1,3.3339277E-2,0E0,0E0,0E0,0E0,0E0,0E0,0E0],"parents":[2147483647,0,0,1,1,4,4,5,5,6,6,7,7,8,8,10,10,11,11,12,12,15,15,16,16,17,17,19,19,22,22,25,25,26,26,27,27,31,31,32,32,37,37,38,38,39,39],"right_children":[2,4,-1,-1,6,8,10,12,14,-1,16,18,20,-1,-1,22,24,26,-1,28,-1,-1,30,-1,-1,32,34,36,-1,-1,-1,38,40,-1,-1,-1,-1,42,44,46,-1,-1,-1,-1,-1,-1,-1],"split_conditions":[1.5E0,-1.4525006E0,-1.1114397E-1,-1.022171E-1,1.0319248E0,7.953129E-1,1.2685368E0,1.5E0,5E-1,-1.337666E-1,5E-1,2.5E0,4.5E0,2.2504145E-2,9.407474E-2,1.5051488E0,1.5051488E0,3.2208902E-1,-1.163817E-1,-3.2828894E-2,-2.7015897E-2,-7.161458E-2,1.8600667E0,8.629171E-2,-2.7310641E-2,-3.2828894E-2,5E-1,5E-1,2.2620851E-2,1.8374322E-2,4.7687514E-4,5E-1,5E-1,-1.5311958E-1,7.288169E-2,2.7007343E-2,1.6202821E-1,5E-1,5E-1,5E-1,2.4214552E-1,4.2837847E-2,-1.764158E-2,-1.6468056E-1,5.800094E-3,-5.7443928E-2,1.8133721E-3],"split_indices":[12,0,0,0,0,0,0,7,18,0,3,13,7,0,0,0,0,0,0,0,0,0,0,0,0,0,13,18,0,0,0,13,15,0,0,0,0,18,15,4,0,0,0,0,0,0,0],"split_type":[0,0,0,0,0,0,0,0,0,0,0,0,0,0,0,0,0,0,0,0,0,0,0,0,0,0,0,0,0,0,0,0,0,0,0,0,0,0,0,0,0,0,0,0,0,0,0],"sum_hessian":[4.97369E1,4.8161976E1,1.574923E0,1.2539034E0,4.6908073E1,3.7574726E1,9.333347E0,3.417217E1,3.4025574E0,2.2586548E0,7.0746927E0,2.8926794E1,5.2453737E0,1.6275399E0,1.7750174E0,3.9655566E0,3.109136E0,2.7469194E1,1.4575992E0,3.2813542E0,1.9640193E0,1.8058199E0,2.1597369E0,1.6317056E0,1.4774306E0,2.4442078E1,3.0271165E0,2.0207057E0,1.2606487E0,1.0825076E0,1.0772291E0,2.0801802E1,3.640276E0,1.8363674E0,1.190749E0,1.0073881E0,1.0133176E0,1.7537817E1,3.2639852E0,2.6030045E0,1.0372716E0,7.8507543E0,9.687063E0,1.5711488E0,1.6928364E0,1.3550826E0,1.2479218E0],"tree_param":{"num_deleted":"0","num_feature":"24","num_nodes":"47","size_leaf_vector":"0"}},{"base_weights":[-3.7829302E-2,-2.280391E-2,-3.205815E-1,-4.4569736E-3,-2.7087474E-1,-2.8713433E-2,1.7765217E-1,-4.5496538E-1,3.559503E-3,9.753226E-3,-1.7364678E-1,3.5356167E-1,-8.7445684E-2,-4.5520794E-2,1.7083502E-1,-6.563021E-1,6.7644386E-4,9.276308E-2,5.0762385E-1,2.0934716E-1,-3.4356853E-1,-1.3051234E-1,6.277069E-2,3.4608808E-1,2.4741525E-2,-8.460641E-2,1.6801338E-1,-6.243116E-2,-5.279826E-1,2.1153742E-1,-1.6609003E-1,5.612585E-1,-2.9181134E-2,-1.9953907E-1,3.9175445E-1,2.4167512E-1,-2.2796118E-1,-1.4148751E-1,2.6430097E-1,2.4897621E-3,6.1336356E-1,3.7920415E-2,-4.6052933E-1,1.2667178E-1,-4.0782428E-1,7.306623E-2,-5.928301E-1,-1.9325665E-1,1.2148515E-1,-6.0693167E-2,4.64196E-1,-1.4267041E-1,3.372484E-1,2.1867909E-1,-1.4662227E-1,2.3092635E-1,-1.4153278E-1,1.1435823E-1,-3.5028747E-1,-2.6036286E-1,8.5357994E-2],"categories":[],"categories_nodes":[],"categories_segments":[],"categories_sizes":[],"default_left":[1,1,0,1,1,1,1,0,0,1,1,1,1,1,1,0,1,0,0,0,0,1,1,1,1,1,0,1,0,1,1,0,0,1,0,0,1,1,1,1,0,1,0,0,0,1,0,1,0,0,0,1,0,0,0,0,0,0,0,0,0],"id":22,"left_children":[1,3,-1,5,7,9,11,-1,-1,13,15,17,19,21,23,-1,25,-1,-1,-1,-1,27,29,31,33,35,-1,37,-1,39,41,-1,-1,43,-1,-1,45,47,49,51,-1,53,-1,-1,-1,55,-1,57,-1,-1,-1,59,-1,-1,-1,-1,-1,-1,-1,-1,-1],"loss_changes":[2.0553683E-1,2.2020844E-1,0E0,2.0968936E-1,1.7002855E-1,2.3435347E-1,2.9127353E-1,0E0,0E0,3.098399E-1,7.413734E-1,9.572297E-2,3.0215234E-1,2.4793592E-1,2.1873549E-1,0E0,1.2079727E-1,0E0,0E0,0E0,0E0,3.707456E-1,4.4809842E-1,3.3605963E-1,5.65355E-1,3.1759968E-1,0E0,3.9569354E-1,0E0,6.529037E-1,3.3814138E-1,0E0,0E0,3.462823E-1,0E0,0E0,5.2809995E-1,1.8439604E-1,2.2638696E-1,3.4593388E-1,0E0,1.6807726E-1,0E0,0E0,0E0,1.4477178E-1,0E0,5.357623E-1,0E0,0E0,0E0,1.558123E-1,0E0,0E0,0E0,0E0,0E0,0E0,0E0,0E0,0E0],"parents":[2147483647,0,0,1,1,3,3,4,4,5,5,6,6,9,9,10,10,11,11,12,12,13,13,14,14,16,16,21,21,22,22,23,23,24,24,25,25,27,27,29,29,30,30,33,33,36,36,37,37,38,38,39,39,41,41,45,45,47,47,51,51],"right_children":[2,4,-1,6,8,10,12,-1,-1,14,16,18,20,22,24,-1,26,-1,-1,-1,-1,28,30,32,34,36,-1,38,-1,40,42,-1,-1,44,-1,-1,46,48,50,52,-1,54,-1,-1,-1,56,-1,58,-1,-1,-1,60,-1,-1,-1,-1,-1,-1,-1,-1,-1],"split_conditions":[1.5E0,3.5E0,-9.6174456E-2,5E-1,5.5E0,1.0319248E0,5E-1,-1.3648961E-1,1.067851E-3,2.0378305E-1,1.2685368E0,-3.2828894E-2,-4.4689977E-1,5E-1,5E-1,-1.9689064E-1,5E-1,2.7828926E-2,1.5228716E-1,6.280415E-2,-1.03070565E-1,-3.2828894E-2,2.5E0,7.953129E-1,7.953129E-1,1.3868427E0,5.0404016E-2,-1.5113486E-1,-1.5839478E-1,5E-1,5E-1,1.6837755E-1,-8.754341E-3,5E-1,1.1752634E-1,7.250254E-2,5E-1,5E-1,5E-1,5E-1,1.8400908E-1,5E-1,-1.381588E-1,3.8001534E-2,-1.2234729E-1,1.6234548E0,-1.7784904E-1,-9.7927666E-1,3.6445547E-2,-1.820795E-2,1.392588E-1,5E-1,1.01174526E-1,6.5603726E-2,-4.398668E-2,6.9277905E-2,-4.2459834E-2,3.4307472E-2,-1.05086245E-1,-7.810886E-2,2.56074E-2],"split_indices":[12,13,0,14,13,0,3,0,0,0,0,0,0,4,18,0,13,0,0,0,0,0,4,0,0,0,0,0,0,13,13,0,0,1,0,0,3,21,18,15,0,15,0,0,0,0,0,0,0,0,0,3,0,0,0,0,0,0,0,0,0],"split_type":[0,0,0,0,0,0,0,0,0,0,0,0,0,0,0,0,0,0,0,0,0,0,0,0,0,0,0,0,0,0,0,0,0,0,0,0,0,0,0,0,0,0,0,0,0,0,0,0,0,0,0,0,0,0,0,0,0,0,0,0,0],"sum_hessian":[4.9099854E1,4.764847E1,1.4513799E0,4.531501E1,2.333462E0,4.073195E1,4.5830603E0,1.0028915E0,1.3305705E0,3.292583E1,7.8061175E0,2.5543694E0,2.028691E0,2.5048151E1,7.8776813E0,1.337652E0,6.4684653E0,1.5435468E0,1.0108225E0,1.024333E0,1.0043579E0,1.3918865E1,1.1129286E1,2.959059E0,4.918622E0,4.612242E0,1.8562231E0,1.2871265E1,1.0475996E0,6.790766E0,4.33852E0,1.5657054E0,1.3933536E0,3.3361971E0,1.582425E0,1.198516E0,3.4137263E0,1.0820171E1,2.0510948E0,5.128757E0,1.6620091E0,3.0774412E0,1.261079E0,1.452759E0,1.8834381E0,2.3087158E0,1.1050105E0,9.261958E0,1.5582134E0,1.0463265E0,1.0047683E0,3.9777226E0,1.1510342E0,1.4612124E0,1.6162288E0,1.2863715E0,1.0223444E0,3.2219937E0,6.039964E0,2.530074E0,1.4476486E0],"tree_param":{"num_deleted":"0","num_feature":"24","num_nodes":"61","size_leaf_vector":"0"}},{"base_weights":[-3.0997764E-2,-3.216198E-1,-1.6898185E-2,-6.768986E-2,4.6356954E-2,-9.712482E-4,-1.7388217E-1,6.771388E-3,2.2722523E-1,-6.153757E-2,2.3736934E-1,-2.4763156E-1,1.7897625E-1,6.409467E-2,-2.4560224E-1,3.5293382E-1,-3.3012077E-2,1.114532E-1,-4.4145432E-1,-1.3536614E-1,4.5917824E-1,-6.61825E-1,-5.217884E-2,1.1418192E-1,-2.914596E-1,-4.7362512E-1,9.901973E-2,2.0968634E-1,-2.757904E-1,-2.254606E-2,-6.9336504E-1,4.5494836E-2,-2.7614495E-1,1.9300891E-1,-5.6150667E-2,3.3507457E-1,8.9256704E-2,1.4990121E-1,-2.0462775E-1,8.347631E-2,5.3983366E-1,-2.1769886E-1,3.27831E-1,7.036362E-1,-6.4944334E-2,-5.283373E-1,3.1891102E-1,-3.9578542E-2,2.138608E-1,-3.1678325E-1,2.3352042E-1,1.6937021E-2,-3.053864E-1,1.655291E-1,4.724925E-1,3.1790026E-2,3.4981996E-1,3.1702927E-1,4.2062216E-3,-5.1886636E-1,1.3490801E-2,2.8597942E-1,-8.521851E-2],"categories":[],"categories_nodes":[],"categories_segments":[],"categories_sizes":[],"default_left":[1,0,1,1,1,1,1,1,1,1,1,1,0,1,1,0,0,1,1,0,0,0,1,1,0,0,0,1,0,0,0,1,0,1,1,1,1,1,0,1,0,1,0,0,0,0,1,0,1,0,1,0,1,1,0,0,0,0,0,0,0,0,0],"id":23,"left_children":[1,-1,3,5,7,9,11,13,15,17,19,21,-1,23,25,-1,-1,27,29,-1,-1,-1,31,33,-1,-1,-1,35,-1,-1,-1,37,-1,39,41,43,45,47,-1,49,-1,51,-1,-1,-1,-1,53,-1,55,-1,57,-1,59,61,-1,-1,-1,-1,-1,-1,-1,-1,-1],"loss_changes":[1.9589578E-1,0E0,1.570816E-1,1.9100061E-1,1.5549643E-1,2.6833314E-1,3.1510708E-1,2.9097876E-1,1.3948637E-1,1.0224981E0,3.7362748E-1,6.961935E-1,0E0,3.23506E-1,3.398858E-1,0E0,0E0,4.7529173E-1,4.945953E-1,0E0,0E0,0E0,1.7046249E-1,2.1228127E-1,0E0,0E0,0E0,1.1085525E-1,0E0,0E0,0E0,1.8434866E-1,0E0,3.5312983E-1,4.1385654E-1,6.6546464E-1,1.0362278E0,6.577357E-2,0E0,6.234338E-1,0E0,9.749359E-2,0E0,0E0,0E0,0E0,4.1532993E-2,0E0,8.026227E-2,0E0,1.3712165E-1,0E0,2.3293489E-1,1.4767374E-1,0E0,0E0,0E0,0E0,0E0,0E0,0E0,0E0,0E0],"parents":[2147483647,0,0,2,2,3,3,4,4,5,5,6,6,7,7,8,8,9,9,10,10,11,11,13,13,14,14,17,17,18,18,22,22,23,23,27,27,31,31,33,33,34,34,35,35,36,36,37,37,39,39,41,41,46,46,48,48,50,50,52,52,53,53],"right_children":[2,-1,4,6,8,10,12,14,16,18,20,22,-1,24,26,-1,-1,28,30,-1,-1,-1,32,34,-1,-1,-1,36,-1,-1,-1,38,-1,40,42,44,46,48,-1,50,-1,52,-1,-1,-1,-1,54,-1,56,-1,58,-1,60,62,-1,-1,-1,-1,-1,-1,-1,-1,-1],"split_conditions":[-1.4525006E0,-9.648595E-2,5E-1,3.2208902E-1,1.5E0,5E-1,5E-1,1.5E0,3.5E0,5E-1,5E-1,9.136189E-1,5.3692877E-2,5E-1,1.5E0,1.0588015E-1,-9.903624E-3,5E-1,-6.243588E-1,-4.0609844E-2,1.3775347E-1,-1.9854751E-1,5E-1,1.5E0,-8.743788E-2,-1.4208755E-1,2.970592E-2,5E-1,-8.273712E-2,-6.763818E-3,-2.0800953E-1,1.6234548E0,-8.284349E-2,5E-1,9.136189E-1,-6.243588E-1,-5.060528E-1,1.2685368E0,-6.138833E-2,5E-1,1.6195011E-1,-3.877468E-1,9.83493E-2,2.1109088E-1,-1.9483302E-2,-1.585012E-1,-3.2828894E-2,-1.1873563E-2,5E-1,-9.503498E-2,2.0378305E-1,5.0811064E-3,2.5E0,-1.5113486E-1,1.4174776E-1,9.537008E-3,1.04945995E-1,9.5108785E-2,1.2618665E-3,-1.5565991E-1,4.0472406E-3,8.579383E-2,-2.5565555E-2],"split_indices":[0,0,4,0,15,2,21,8,4,3,18,0,0,12,7,0,0,17,0,0,0,0,13,13,0,0,0,18,0,0,0,0,0,10,0,0,0,0,0,1,0,0,0,0,0,0,0,0,3,0,0,0,4,0,0,0,0,0,0,0,0,0,0],"split_type":[0,0,0,0,0,0,0,0,0,0,0,0,0,0,0,0,0,0,0,0,0,0,0,0,0,0,0,0,0,0,0,0,0,0,0,0,0,0,0,0,0,0,0,0,0,0,0,0,0,0,0,0,0,0,0,0,0,0,0,0,0,0,0],"sum_hessian":[4.8133194E1,1.2179562E0,4.6915237E1,2.5982271E1,2.0932966E1,1.6576635E1,9.405637E0,1.8025312E1,2.9076548E0,1.3809276E1,2.767359E0,8.026306E0,1.3793303E0,1.5296866E1,2.7284455E0,1.720406E0,1.1872486E0,9.974252E0,3.835024E0,1.1778222E0,1.5895369E0,1.8082476E0,6.218059E0,1.4003099E1,1.2937673E0,1.4167229E0,1.3117226E0,8.321763E0,1.6524887E0,1.8492924E0,1.9857317E0,4.8846745E0,1.3333843E0,9.481907E0,4.5211926E0,3.2037618E0,5.118001E0,3.7288601E0,1.1558148E0,8.149011E0,1.3328956E0,3.487138E0,1.0340546E0,1.272408E0,1.9313539E0,1.0347475E0,4.0832534E0,1.0372399E0,2.69162E0,1.9188895E0,6.2301216E0,1.1681716E0,2.3189664E0,3.082526E0,1.0007275E0,1.6781428E0,1.0134773E0,4.2865777E0,1.9435438E0,1.0133728E0,1.3055936E0,1.9873608E0,1.0951651E0],"tree_param":{"num_deleted":"0","num_feature":"24","num_nodes":"63","size_leaf_vector":"0"}},{"base_weights":[-3.0157553E-2,-5.1719144E-2,1.9917008E-1,-3.2367527E-1,-1.0677867E-2,-2.67163E-1,7.8396934E-1,8.5627444E-2,-4.9707225E-1,4.165088E-2,-1.8094996E-1,-3.5050787E-2,-3.5854766E-1,-1.6643912E-2,-7.0706886E-1,1.1623946E-1,-1.1282313E-1,-3.6628044E-1,-7.244866E-2,-1.336756E-1,2.2412446E-1,-3.8112292E-1,6.818551E-2,-4.601059E-1,-7.743687E-2,2.9243754E-2,-2.5967318E-1,3.9850584E-1,-3.3641517E-1,1.2927352E-1,5.880766E-1,-7.2242576E-1,2.30721E-1,4.516779E-1,-7.9510026E-2,-1.00539826E-1,2.249583E-1,-4.8053226E-1,-1.00286156E-1,2.2892016E-1,-1.7494875E-1,-2.964572E-1,1.0367255E-1,-3.7169492E-1,2.0121184E-1,-6.4734656E-1,-5.5681977E-2,2.0880109E-1,-3.3861145E-1,-1.0618125E-1,3.7380216E-1,-4.8026133E-1,1.0308691E-1,-2.3182337E-1,4.1315272E-1,3.967487E-1,-5.3122294E-1,1.9922702E-2,4.3245786E-1,6.423752E-1,2.7277982E-1],"categories":[],"categories_nodes":[],"categories_segments":[],"categories_sizes":[],"default_left":[1,1,1,1,1,1,0,0,1,1,1,0,0,0,0,1,1,1,1,1,1,1,1,0,0,1,0,0,1,1,0,0,0,0,1,1,0,1,1,1,1,0,1,0,0,0,0,0,0,1,1,0,0,0,0,0,0,0,1,0,0],"id":24,"left_children":[1,3,5,7,9,11,-1,-1,13,15,17,-1,-1,-1,-1,19,21,23,25,27,29,31,33,-1,-1,35,-1,-1,37,39,-1,-1,-1,-1,41,43,-1,45,47,49,51,-1,53,-1,-1,-1,-1,-1,-1,55,57,-1,-1,-1,-1,-1,-1,-1,59,-1,-1],"loss_changes":[2.496659E-1,4.9928004E-1,1.4002196E0,4.5930845E-1,3.6545923E-1,5.4781213E-2,0E0,0E0,4.1918373E-1,3.7651834E-1,1.6711527E-1,0E0,0E0,0E0,0E0,6.1671764E-1,5.494006E-1,5.4062605E-2,1.4697585E-1,9.0963304E-1,4.6161336E-1,1.1050632E0,4.4848078E-1,0E0,0E0,1.6594708E-1,0E0,0E0,1.4739776E-1,4.534248E-1,0E0,0E0,0E0,0E0,2.7351323E-1,4.0894833E-1,0E0,1.9821161E-1,3.242588E-1,5.594137E-1,3.8322482E-1,0E0,5.1661664E-1,0E0,0E0,0E0,0E0,0E0,0E0,1.0679693E0,1.5110648E-1,0E0,0E0,0E0,0E0,0E0,0E0,0E0,4.4406533E-2,0E0,0E0],"parents":[2147483647,0,0,1,1,2,2,3,3,4,4,5,5,8,8,9,9,10,10,15,15,16,16,17,17,18,18,19,19,20,20,21,21,22,22,25,25,28,28,29,29,34,34,35,35,37,37,38,38,39,39,40,40,42,42,49,49,50,50,58,58],"right_children":[2,4,6,8,10,12,-1,-1,14,16,18,-1,-1,-1,-1,20,22,24,26,28,30,32,34,-1,-1,36,-1,-1,38,40,-1,-1,-1,-1,42,44,-1,46,48,50,52,-1,54,-1,-1,-1,-1,-1,-1,56,58,-1,-1,-1,-1,-1,-1,-1,60,-1,-1],"split_conditions":[5E-1,-9.7927666E-1,5E-1,5E-1,1.0319248E0,5E-1,2.3519081E-1,2.5688235E-2,-1.2158886E0,5E-1,5E-1,-1.0515236E-2,-1.075643E-1,-4.9931738E-3,-2.1212067E-1,5E-1,5E-1,1.3868427E0,1.6234548E0,-6.243588E-1,5E-1,-3.2828894E-2,5E-1,-1.3803178E-1,-2.3231063E-2,5E-1,-7.790196E-2,1.19551755E-1,-3.2828894E-2,5E-1,1.7642298E-1,-2.1672773E-1,6.92163E-2,1.3550337E-1,1.5E0,1.3868427E0,6.748749E-2,5E-1,4.40395E-1,5E-1,5E-1,-8.893716E-2,5E-1,-1.1150848E-1,6.0363553E-2,-1.9420397E-1,-1.6704595E-2,6.264033E-2,-1.0158344E-1,5E-1,-5.060528E-1,-1.440784E-1,3.0926075E-2,-6.954701E-2,1.23945825E-1,1.1902461E-1,-1.5936689E-1,5.9768106E-3,-3.877468E-1,1.9271256E-1,8.183395E-2],"split_indices":[17,0,3,1,0,1,0,0,0,15,18,0,0,0,0,1,4,0,0,0,21,0,18,0,0,3,0,0,0,13,0,0,0,0,4,0,0,18,0,18,7,0,13,0,0,0,0,0,0,3,0,0,0,0,0,0,0,0,0,0,0],"split_type":[0,0,0,0,0,0,0,0,0,0,0,0,0,0,0,0,0,0,0,0,0,0,0,0,0,0,0,0,0,0,0,0,0,0,0,0,0,0,0,0,0,0,0,0,0,0,0,0,0,0,0,0,0,0,0,0,0,0,0,0,0],"sum_hessian":[4.740871E1,4.404229E1,3.3664207E0,4.871982E0,3.9170307E1,2.1750987E0,1.191322E0,1.6004068E0,3.2715755E0,3.0540007E1,8.630299E0,1.0052836E0,1.1698151E0,1.3233304E0,1.948245E0,2.0762325E1,9.777682E0,2.309551E0,6.320748E0,6.18824E0,1.4574084E1,3.4936597E0,6.2840223E0,1.2957324E0,1.0138186E0,4.642787E0,1.6779612E0,1.4407465E0,4.7474937E0,1.2636129E1,1.9379555E0,2.1266322E0,1.3670275E0,1.1749885E0,5.109034E0,3.0839982E0,1.5587887E0,2.3053958E0,2.4420977E0,9.704866E0,2.9312625E0,2.0558617E0,3.0531723E0,1.5022659E0,1.5817323E0,1.2793596E0,1.0260363E0,1.1171427E0,1.3249551E0,3.010023E0,6.694844E0,1.0504357E0,1.8808267E0,1.5854125E0,1.4677598E0,1.4091791E0,1.6008439E0,1.1423734E0,5.55247E0,1.0928448E0,4.4596257E0],"tree_param":{"num_deleted":"0","num_feature":"24","num_nodes":"61","size_leaf_vector":"0"}},{"base_weights":[-2.8913263E-2,-4.7153067E-2,1.634267E-1,-4.410864E-1,-2.6443692E-2,-2.3253734E-1,6.2819374E-1,9.475176E-3,-1.775729E-1,-2.8752974E-1,-6.656808E-2,-8.248322E-2,6.445256E-2,-3.889216E-1,-5.7564877E-2,2.9158793E-2,-3.0502868E-1,9.191963E-3,3.5540423E-1,3.9587688E-2,-2.1831837E-1,-1.0175366E-1,4.557007E-1,-6.739191E-1,4.1391104E-2,7.967474E-2,-1.5333803E-1,7.4285366E-2,5.254641E-1,-1.2240739E-1,2.4880607E-1,-1.9669604E-1,1.6897388E-1,-1.6185759E-2,3.9706692E-1,-3.8245434E-1,2.3397365E-1,-7.464593E-2,-4.4370577E-1,8.2397126E-2,-3.8440436E-1,6.078458E-1,-6.1552864E-2,-5.362865E-1,-5.5860747E-2,2.4605513E-2,-2.3709303E-1,-1.9007267E-2,3.055633E-1,2.3385184E-1,-1.3961169E-1,-1.0723099E-1,2.7214244E-1,5.93541E-1,-1.5495478E-1],"categories":[],"categories_nodes":[],"categories_segments":[],"categories_sizes":[],"default_left":[1,1,1,0,1,1,0,1,1,0,0,1,1,0,1,1,1,1,1,1,0,1,0,0,0,1,1,0,0,0,0,1,0,1,1,1,0,1,0,1,0,0,0,0,0,1,0,1,1,0,0,0,0,0,0],"id":25,"left_children":[1,3,5,-1,7,9,-1,11,13,-1,-1,15,17,-1,19,21,23,25,27,29,-1,31,-1,-1,-1,33,35,-1,-1,-1,-1,37,-1,39,41,43,-1,45,-1,47,-1,-1,-1,-1,-1,49,-1,51,53,-1,-1,-1,-1,-1,-1],"loss_changes":[1.7502499E-1,3.5005155E-1,9.4752556E-1,0E0,2.3612078E-1,8.983538E-3,0E0,1.8652773E-1,1.8924373E-1,0E0,0E0,3.5299885E-1,3.664291E-1,0E0,1.1009051E-1,6.123463E-1,6.303085E-1,2.4533896E-1,1.3515452E-1,1.9636919E-1,0E0,2.5359133E-1,0E0,0E0,0E0,4.5832175E-1,6.6607064E-1,0E0,0E0,0E0,0E0,1.7215884E-1,0E0,4.8063695E-1,3.7424767E-1,1.9421923E-1,0E0,9.869638E-2,0E0,2.4522462E-1,0E0,0E0,0E0,0E0,0E0,1.8663064E-1,0E0,2.4021298E-1,5.3808975E-1,0E0,0E0,0E0,0E0,0E0,0E0],"parents":[2147483647,0,0,1,1,2,2,4,4,5,5,7,7,8,8,11,11,12,12,14,14,15,15,16,16,17,17,18,18,19,19,21,21,25,25,26,26,31,31,33,33,34,34,35,35,37,37,39,39,45,45,47,47,48,48],"right_children":[2,4,6,-1,8,10,-1,12,14,-1,-1,16,18,-1,20,22,24,